digraph Tree {
node [shape=box, style="rounded", color="black", fontname="helvetica"] ;
edge [fontname="helvetica"] ;
0 [label="priors_count <= 2.5\ngini = 0.496\nsamples = 4316\nvalue = [2362, 1954]\nclass = Unprivileged"] ;
1 [label="age <= 28.5\ngini = 0.453\nsamples = 2735\nvalue = [1785.0, 950.0]\nclass = Unprivileged"] ;
0 -> 1 [labeldistance=2.5, labelangle=45, headlabel="True"] ;
2 [label="age <= 20.5\ngini = 0.499\nsamples = 1187\nvalue = [624, 563]\nclass = Unprivileged"] ;
1 -> 2 ;
3 [label="priors_count <= 0.5\ngini = 0.369\nsamples = 119\nvalue = [29, 90]\nclass = Privileged"] ;
2 -> 3 ;
4 [label="c_charge_desc=Grand Theft in the 3rd Degree <= 0.5\ngini = 0.448\nsamples = 68\nvalue = [23, 45]\nclass = Privileged"] ;
3 -> 4 ;
5 [label="juv_other_count <= 1.5\ngini = 0.4\nsamples = 58\nvalue = [16, 42]\nclass = Privileged"] ;
4 -> 5 ;
6 [label="c_charge_desc=Att Burgl Unoccupied Dwel <= 0.5\ngini = 0.37\nsamples = 53\nvalue = [13, 40]\nclass = Privileged"] ;
5 -> 6 ;
7 [label="c_charge_desc=Possession of Cocaine <= 0.5\ngini = 0.355\nsamples = 52\nvalue = [12, 40]\nclass = Privileged"] ;
6 -> 7 ;
8 [label="c_charge_desc=Burglary Dwelling Assault/Batt <= 0.5\ngini = 0.325\nsamples = 49\nvalue = [10, 39]\nclass = Privileged"] ;
7 -> 8 ;
9 [label="c_charge_desc=Poss3,4 Methylenedioxymethcath <= 0.5\ngini = 0.305\nsamples = 48\nvalue = [9, 39]\nclass = Privileged"] ;
8 -> 9 ;
10 [label="c_charge_desc=Possession Burglary Tools <= 0.5\ngini = 0.282\nsamples = 47\nvalue = [8, 39]\nclass = Privileged"] ;
9 -> 10 ;
11 [label="c_charge_desc=Carrying Concealed Firearm <= 0.5\ngini = 0.258\nsamples = 46\nvalue = [7, 39]\nclass = Privileged"] ;
10 -> 11 ;
12 [label="c_charge_desc=Possess Cannabis/20 Grams Or Less <= 0.5\ngini = 0.231\nsamples = 45\nvalue = [6, 39]\nclass = Privileged"] ;
11 -> 12 ;
13 [label="c_charge_desc=Burglary Dwelling Occupied <= 0.5\ngini = 0.201\nsamples = 44\nvalue = [5, 39]\nclass = Privileged"] ;
12 -> 13 ;
14 [label="juv_other_count <= 0.5\ngini = 0.172\nsamples = 42\nvalue = [4, 38]\nclass = Privileged"] ;
13 -> 14 ;
15 [label="c_charge_desc=Grand Theft (Motor Vehicle) <= 0.5\ngini = 0.142\nsamples = 39\nvalue = [3, 36]\nclass = Privileged"] ;
14 -> 15 ;
16 [label="c_charge_desc=Pos Cannabis W/Intent Sel/Del <= 0.5\ngini = 0.105\nsamples = 36\nvalue = [2, 34]\nclass = Privileged"] ;
15 -> 16 ;
17 [label="c_charge_desc=Battery <= 0.5\ngini = 0.059\nsamples = 33\nvalue = [1, 32]\nclass = Privileged"] ;
16 -> 17 ;
18 [label="gini = 0.0\nsamples = 23\nvalue = [0, 23]\nclass = Privileged"] ;
17 -> 18 ;
19 [label="race <= 0.5\ngini = 0.18\nsamples = 10\nvalue = [1, 9]\nclass = Privileged"] ;
17 -> 19 ;
20 [label="gini = 0.0\nsamples = 5\nvalue = [0, 5]\nclass = Privileged"] ;
19 -> 20 ;
21 [label="sex <= 0.5\ngini = 0.32\nsamples = 5\nvalue = [1, 4]\nclass = Privileged"] ;
19 -> 21 ;
22 [label="age <= 19.5\ngini = 0.375\nsamples = 4\nvalue = [1, 3]\nclass = Privileged"] ;
21 -> 22 ;
23 [label="gini = 0.0\nsamples = 1\nvalue = [0, 1]\nclass = Privileged"] ;
22 -> 23 ;
24 [label="gini = 0.444\nsamples = 3\nvalue = [1, 2]\nclass = Privileged"] ;
22 -> 24 ;
25 [label="gini = 0.0\nsamples = 1\nvalue = [0, 1]\nclass = Privileged"] ;
21 -> 25 ;
26 [label="race <= 0.5\ngini = 0.444\nsamples = 3\nvalue = [1, 2]\nclass = Privileged"] ;
16 -> 26 ;
27 [label="gini = 0.0\nsamples = 2\nvalue = [0, 2]\nclass = Privileged"] ;
26 -> 27 ;
28 [label="gini = 0.0\nsamples = 1\nvalue = [1, 0]\nclass = Unprivileged"] ;
26 -> 28 ;
29 [label="gini = 0.444\nsamples = 3\nvalue = [1, 2]\nclass = Privileged"] ;
15 -> 29 ;
30 [label="c_charge_desc=Burglary Unoccupied Dwelling <= 0.5\ngini = 0.444\nsamples = 3\nvalue = [1, 2]\nclass = Privileged"] ;
14 -> 30 ;
31 [label="gini = 0.0\nsamples = 2\nvalue = [0, 2]\nclass = Privileged"] ;
30 -> 31 ;
32 [label="gini = 0.0\nsamples = 1\nvalue = [1, 0]\nclass = Unprivileged"] ;
30 -> 32 ;
33 [label="c_charge_degree=F <= 0.5\ngini = 0.5\nsamples = 2\nvalue = [1, 1]\nclass = Unprivileged"] ;
13 -> 33 ;
34 [label="gini = 0.0\nsamples = 1\nvalue = [0, 1]\nclass = Privileged"] ;
33 -> 34 ;
35 [label="gini = 0.0\nsamples = 1\nvalue = [1, 0]\nclass = Unprivileged"] ;
33 -> 35 ;
36 [label="gini = 0.0\nsamples = 1\nvalue = [1, 0]\nclass = Unprivileged"] ;
12 -> 36 ;
37 [label="gini = 0.0\nsamples = 1\nvalue = [1, 0]\nclass = Unprivileged"] ;
11 -> 37 ;
38 [label="gini = 0.0\nsamples = 1\nvalue = [1, 0]\nclass = Unprivileged"] ;
10 -> 38 ;
39 [label="gini = 0.0\nsamples = 1\nvalue = [1, 0]\nclass = Unprivileged"] ;
9 -> 39 ;
40 [label="gini = 0.0\nsamples = 1\nvalue = [1, 0]\nclass = Unprivileged"] ;
8 -> 40 ;
41 [label="juv_other_count <= 0.5\ngini = 0.444\nsamples = 3\nvalue = [2, 1]\nclass = Unprivileged"] ;
7 -> 41 ;
42 [label="gini = 0.0\nsamples = 2\nvalue = [2, 0]\nclass = Unprivileged"] ;
41 -> 42 ;
43 [label="gini = 0.0\nsamples = 1\nvalue = [0, 1]\nclass = Privileged"] ;
41 -> 43 ;
44 [label="gini = 0.0\nsamples = 1\nvalue = [1, 0]\nclass = Unprivileged"] ;
6 -> 44 ;
45 [label="race <= 0.5\ngini = 0.48\nsamples = 5\nvalue = [3, 2]\nclass = Unprivileged"] ;
5 -> 45 ;
46 [label="c_charge_desc=Tampering With Physical Evidence <= 0.5\ngini = 0.444\nsamples = 3\nvalue = [1, 2]\nclass = Privileged"] ;
45 -> 46 ;
47 [label="gini = 0.0\nsamples = 2\nvalue = [0, 2]\nclass = Privileged"] ;
46 -> 47 ;
48 [label="gini = 0.0\nsamples = 1\nvalue = [1, 0]\nclass = Unprivileged"] ;
46 -> 48 ;
49 [label="gini = 0.0\nsamples = 2\nvalue = [2, 0]\nclass = Unprivileged"] ;
45 -> 49 ;
50 [label="sex <= 0.5\ngini = 0.42\nsamples = 10\nvalue = [7, 3]\nclass = Unprivileged"] ;
4 -> 50 ;
51 [label="juv_other_count <= 1.0\ngini = 0.5\nsamples = 6\nvalue = [3, 3]\nclass = Unprivileged"] ;
50 -> 51 ;
52 [label="race <= 0.5\ngini = 0.375\nsamples = 4\nvalue = [1, 3]\nclass = Privileged"] ;
51 -> 52 ;
53 [label="gini = 0.5\nsamples = 2\nvalue = [1, 1]\nclass = Unprivileged"] ;
52 -> 53 ;
54 [label="gini = 0.0\nsamples = 2\nvalue = [0, 2]\nclass = Privileged"] ;
52 -> 54 ;
55 [label="gini = 0.0\nsamples = 2\nvalue = [2, 0]\nclass = Unprivileged"] ;
51 -> 55 ;
56 [label="gini = 0.0\nsamples = 4\nvalue = [4, 0]\nclass = Unprivileged"] ;
50 -> 56 ;
57 [label="c_charge_desc=Possession of Cannabis <= 0.5\ngini = 0.208\nsamples = 51\nvalue = [6, 45]\nclass = Privileged"] ;
3 -> 57 ;
58 [label="c_charge_desc=Poss3,4 Methylenedioxymethcath <= 0.5\ngini = 0.18\nsamples = 50\nvalue = [5, 45]\nclass = Privileged"] ;
57 -> 58 ;
59 [label="c_charge_desc=arrest case no charge <= 0.5\ngini = 0.153\nsamples = 48\nvalue = [4, 44]\nclass = Privileged"] ;
58 -> 59 ;
60 [label="c_charge_desc=Battery <= 0.5\ngini = 0.059\nsamples = 33\nvalue = [1, 32]\nclass = Privileged"] ;
59 -> 60 ;
61 [label="gini = 0.0\nsamples = 28\nvalue = [0, 28]\nclass = Privileged"] ;
60 -> 61 ;
62 [label="sex <= 0.5\ngini = 0.32\nsamples = 5\nvalue = [1, 4]\nclass = Privileged"] ;
60 -> 62 ;
63 [label="gini = 0.0\nsamples = 4\nvalue = [0, 4]\nclass = Privileged"] ;
62 -> 63 ;
64 [label="gini = 0.0\nsamples = 1\nvalue = [1, 0]\nclass = Unprivileged"] ;
62 -> 64 ;
65 [label="juv_other_count <= 1.5\ngini = 0.32\nsamples = 15\nvalue = [3, 12]\nclass = Privileged"] ;
59 -> 65 ;
66 [label="sex <= 0.5\ngini = 0.245\nsamples = 14\nvalue = [2, 12]\nclass = Privileged"] ;
65 -> 66 ;
67 [label="age <= 19.5\ngini = 0.153\nsamples = 12\nvalue = [1, 11]\nclass = Privileged"] ;
66 -> 67 ;
68 [label="juv_fel_count <= 1.5\ngini = 0.444\nsamples = 3\nvalue = [1, 2]\nclass = Privileged"] ;
67 -> 68 ;
69 [label="juv_other_count <= 0.5\ngini = 0.5\nsamples = 2\nvalue = [1, 1]\nclass = Unprivileged"] ;
68 -> 69 ;
70 [label="gini = 0.0\nsamples = 1\nvalue = [1, 0]\nclass = Unprivileged"] ;
69 -> 70 ;
71 [label="gini = 0.0\nsamples = 1\nvalue = [0, 1]\nclass = Privileged"] ;
69 -> 71 ;
72 [label="gini = 0.0\nsamples = 1\nvalue = [0, 1]\nclass = Privileged"] ;
68 -> 72 ;
73 [label="gini = 0.0\nsamples = 9\nvalue = [0, 9]\nclass = Privileged"] ;
67 -> 73 ;
74 [label="juv_fel_count <= 0.5\ngini = 0.5\nsamples = 2\nvalue = [1, 1]\nclass = Unprivileged"] ;
66 -> 74 ;
75 [label="gini = 0.0\nsamples = 1\nvalue = [0, 1]\nclass = Privileged"] ;
74 -> 75 ;
76 [label="gini = 0.0\nsamples = 1\nvalue = [1, 0]\nclass = Unprivileged"] ;
74 -> 76 ;
77 [label="gini = 0.0\nsamples = 1\nvalue = [1, 0]\nclass = Unprivileged"] ;
65 -> 77 ;
78 [label="juv_fel_count <= 0.5\ngini = 0.5\nsamples = 2\nvalue = [1, 1]\nclass = Unprivileged"] ;
58 -> 78 ;
79 [label="gini = 0.0\nsamples = 1\nvalue = [1, 0]\nclass = Unprivileged"] ;
78 -> 79 ;
80 [label="gini = 0.0\nsamples = 1\nvalue = [0, 1]\nclass = Privileged"] ;
78 -> 80 ;
81 [label="gini = 0.0\nsamples = 1\nvalue = [1, 0]\nclass = Unprivileged"] ;
57 -> 81 ;
82 [label="priors_count <= 0.5\ngini = 0.493\nsamples = 1068\nvalue = [595.0, 473.0]\nclass = Unprivileged"] ;
2 -> 82 ;
83 [label="age <= 22.5\ngini = 0.463\nsamples = 555\nvalue = [353.0, 202.0]\nclass = Unprivileged"] ;
82 -> 83 ;
84 [label="c_charge_desc=Burglary Conveyance Unoccup <= 0.5\ngini = 0.5\nsamples = 201\nvalue = [101.0, 100.0]\nclass = Unprivileged"] ;
83 -> 84 ;
85 [label="c_charge_desc=Deliver 3,4 Methylenediox <= 0.5\ngini = 0.499\nsamples = 193\nvalue = [100.0, 93.0]\nclass = Unprivileged"] ;
84 -> 85 ;
86 [label="c_charge_desc=Pos Cannabis W/Intent Sel/Del <= 0.5\ngini = 0.5\nsamples = 190\nvalue = [97, 93]\nclass = Unprivileged"] ;
85 -> 86 ;
87 [label="c_charge_desc=Grand Theft in the 3rd Degree <= 0.5\ngini = 0.5\nsamples = 184\nvalue = [92, 92]\nclass = Unprivileged"] ;
86 -> 87 ;
88 [label="gini = 0.499\nsamples = 157\nvalue = [82, 75]\nclass = Unprivileged"] ;
87 -> 88 ;
217 [label="age <= 21.5\ngini = 0.466\nsamples = 27\nvalue = [10, 17]\nclass = Privileged"] ;
87 -> 217 ;
218 [label="juv_other_count <= 0.5\ngini = 0.391\nsamples = 15\nvalue = [4, 11]\nclass = Privileged"] ;
217 -> 218 ;
219 [label="sex <= 0.5\ngini = 0.408\nsamples = 14\nvalue = [4, 10]\nclass = Privileged"] ;
218 -> 219 ;
220 [label="race <= 0.5\ngini = 0.42\nsamples = 10\nvalue = [3, 7]\nclass = Privileged"] ;
219 -> 220 ;
221 [label="gini = 0.469\nsamples = 8\nvalue = [3, 5]\nclass = Privileged"] ;
220 -> 221 ;
222 [label="gini = 0.0\nsamples = 2\nvalue = [0, 2]\nclass = Privileged"] ;
220 -> 222 ;
223 [label="race <= 0.5\ngini = 0.375\nsamples = 4\nvalue = [1, 3]\nclass = Privileged"] ;
219 -> 223 ;
224 [label="gini = 0.0\nsamples = 2\nvalue = [0, 2]\nclass = Privileged"] ;
223 -> 224 ;
225 [label="gini = 0.5\nsamples = 2\nvalue = [1, 1]\nclass = Unprivileged"] ;
223 -> 225 ;
226 [label="gini = 0.0\nsamples = 1\nvalue = [0, 1]\nclass = Privileged"] ;
218 -> 226 ;
227 [label="race <= 0.5\ngini = 0.5\nsamples = 12\nvalue = [6, 6]\nclass = Unprivileged"] ;
217 -> 227 ;
228 [label="juv_other_count <= 0.5\ngini = 0.496\nsamples = 11\nvalue = [5, 6]\nclass = Privileged"] ;
227 -> 228 ;
229 [label="sex <= 0.5\ngini = 0.5\nsamples = 10\nvalue = [5, 5]\nclass = Unprivileged"] ;
228 -> 229 ;
230 [label="gini = 0.444\nsamples = 6\nvalue = [2, 4]\nclass = Privileged"] ;
229 -> 230 ;
231 [label="gini = 0.375\nsamples = 4\nvalue = [3, 1]\nclass = Unprivileged"] ;
229 -> 231 ;
232 [label="gini = 0.0\nsamples = 1\nvalue = [0, 1]\nclass = Privileged"] ;
228 -> 232 ;
233 [label="gini = 0.0\nsamples = 1\nvalue = [1, 0]\nclass = Unprivileged"] ;
227 -> 233 ;
234 [label="age <= 21.5\ngini = 0.278\nsamples = 6\nvalue = [5, 1]\nclass = Unprivileged"] ;
86 -> 234 ;
235 [label="gini = 0.0\nsamples = 1\nvalue = [0, 1]\nclass = Privileged"] ;
234 -> 235 ;
236 [label="gini = 0.0\nsamples = 5\nvalue = [5, 0]\nclass = Unprivileged"] ;
234 -> 236 ;
237 [label="gini = 0.0\nsamples = 3\nvalue = [3, 0]\nclass = Unprivileged"] ;
85 -> 237 ;
238 [label="age <= 21.5\ngini = 0.219\nsamples = 8\nvalue = [1, 7]\nclass = Privileged"] ;
84 -> 238 ;
239 [label="race <= 0.5\ngini = 0.32\nsamples = 5\nvalue = [1, 4]\nclass = Privileged"] ;
238 -> 239 ;
240 [label="gini = 0.375\nsamples = 4\nvalue = [1, 3]\nclass = Privileged"] ;
239 -> 240 ;
241 [label="gini = 0.0\nsamples = 1\nvalue = [0, 1]\nclass = Privileged"] ;
239 -> 241 ;
242 [label="gini = 0.0\nsamples = 3\nvalue = [0, 3]\nclass = Privileged"] ;
238 -> 242 ;
243 [label="sex <= 0.5\ngini = 0.41\nsamples = 354\nvalue = [252, 102]\nclass = Unprivileged"] ;
83 -> 243 ;
244 [label="c_charge_desc=Felony Battery (Dom Strang) <= 0.5\ngini = 0.448\nsamples = 257\nvalue = [170, 87]\nclass = Unprivileged"] ;
243 -> 244 ;
245 [label="c_charge_desc=Driving License Suspended <= 0.5\ngini = 0.442\nsamples = 252\nvalue = [169, 83]\nclass = Unprivileged"] ;
244 -> 245 ;
246 [label="c_charge_desc=Disorderly Intoxication <= 0.5\ngini = 0.438\nsamples = 250\nvalue = [169, 81]\nclass = Unprivileged"] ;
245 -> 246 ;
247 [label="c_charge_desc=Aggravated Assault W/Dead Weap <= 0.5\ngini = 0.434\nsamples = 248\nvalue = [169, 79]\nclass = Unprivileged"] ;
246 -> 247 ;
248 [label="c_charge_desc=Tamper With Witness/Victim/CI <= 0.5\ngini = 0.43\nsamples = 246\nvalue = [169, 77]\nclass = Unprivileged"] ;
247 -> 248 ;
249 [label="c_charge_desc=Felony Battery <= 0.5\ngini = 0.426\nsamples = 244\nvalue = [169, 75]\nclass = Unprivileged"] ;
248 -> 249 ;
250 [label="age <= 26.5\ngini = 0.42\nsamples = 240\nvalue = [168, 72]\nclass = Unprivileged"] ;
249 -> 250 ;
251 [label="c_charge_desc=Carrying Concealed Firearm <= 0.5\ngini = 0.394\nsamples = 178\nvalue = [130, 48]\nclass = Unprivileged"] ;
250 -> 251 ;
252 [label="c_charge_desc=Poss/Sell/Del Cocaine 1000FT Sch <= 0.5\ngini = 0.39\nsamples = 177\nvalue = [130, 47]\nclass = Unprivileged"] ;
251 -> 252 ;
253 [label="c_charge_desc=Corrupt Public Servant <= 0.5\ngini = 0.386\nsamples = 176\nvalue = [130, 46]\nclass = Unprivileged"] ;
252 -> 253 ;
254 [label="c_charge_desc=Unlaw LicTag/Sticker Attach <= 0.5\ngini = 0.382\nsamples = 175\nvalue = [130.0, 45.0]\nclass = Unprivileged"] ;
253 -> 254 ;
255 [label="c_charge_desc=Possession of Alcohol Under 21 <= 0.5\ngini = 0.378\nsamples = 174\nvalue = [130.0, 44.0]\nclass = Unprivileged"] ;
254 -> 255 ;
256 [label="c_charge_desc=Poss Counterfeit Payment Inst <= 0.5\ngini = 0.374\nsamples = 173\nvalue = [130, 43]\nclass = Unprivileged"] ;
255 -> 256 ;
257 [label="c_charge_desc=Resist/Obstruct W/O Violence <= 0.5\ngini = 0.369\nsamples = 172\nvalue = [130, 42]\nclass = Unprivileged"] ;
256 -> 257 ;
258 [label="c_charge_desc=False Imprisonment <= 0.5\ngini = 0.365\nsamples = 171\nvalue = [130, 41]\nclass = Unprivileged"] ;
257 -> 258 ;
259 [label="c_charge_desc=Tamper With Victim <= 0.5\ngini = 0.36\nsamples = 170\nvalue = [130, 40]\nclass = Unprivileged"] ;
258 -> 259 ;
260 [label="c_charge_desc=Depriv LEO of Protect/Communic <= 0.5\ngini = 0.355\nsamples = 169\nvalue = [130, 39]\nclass = Unprivileged"] ;
259 -> 260 ;
261 [label="c_charge_desc=Battery <= 0.5\ngini = 0.35\nsamples = 168\nvalue = [130, 38]\nclass = Unprivileged"] ;
260 -> 261 ;
262 [label="c_charge_desc=Burglary Conveyance Unoccup <= 0.5\ngini = 0.306\nsamples = 122\nvalue = [99, 23]\nclass = Unprivileged"] ;
261 -> 262 ;
263 [label="c_charge_desc=Viol Pretrial Release Dom Viol <= 0.5\ngini = 0.291\nsamples = 119\nvalue = [98, 21]\nclass = Unprivileged"] ;
262 -> 263 ;
264 [label="juv_other_count <= 2.5\ngini = 0.282\nsamples = 118\nvalue = [98, 20]\nclass = Unprivileged"] ;
263 -> 264 ;
265 [label="c_charge_desc=Burglary Unoccupied Dwelling <= 0.5\ngini = 0.272\nsamples = 117\nvalue = [98, 19]\nclass = Unprivileged"] ;
264 -> 265 ;
266 [label="c_charge_desc=Driving Under The Influence <= 0.5\ngini = 0.256\nsamples = 113\nvalue = [96, 17]\nclass = Unprivileged"] ;
265 -> 266 ;
267 [label="c_charge_desc=arrest case no charge <= 0.5\ngini = 0.239\nsamples = 108\nvalue = [93, 15]\nclass = Unprivileged"] ;
266 -> 267 ;
268 [label="race <= 0.5\ngini = 0.221\nsamples = 103\nvalue = [90, 13]\nclass = Unprivileged"] ;
267 -> 268 ;
269 [label="c_charge_desc=Uttering a Forged Instrument <= 0.5\ngini = 0.272\nsamples = 74\nvalue = [62, 12]\nclass = Unprivileged"] ;
268 -> 269 ;
270 [label="c_charge_desc=Operating W/O Valid License <= 0.5\ngini = 0.259\nsamples = 72\nvalue = [61, 11]\nclass = Unprivileged"] ;
269 -> 270 ;
271 [label="age <= 25.5\ngini = 0.245\nsamples = 70\nvalue = [60, 10]\nclass = Unprivileged"] ;
270 -> 271 ;
272 [label="c_charge_desc=Burglary Structure Unoccup <= 0.5\ngini = 0.191\nsamples = 56\nvalue = [50, 6]\nclass = Unprivileged"] ;
271 -> 272 ;
273 [label="c_charge_desc=Grand Theft in the 3rd Degree <= 0.5\ngini = 0.165\nsamples = 55\nvalue = [50, 5]\nclass = Unprivileged"] ;
272 -> 273 ;
274 [label="c_charge_desc=Possession Burglary Tools <= 0.5\ngini = 0.113\nsamples = 50\nvalue = [47, 3]\nclass = Unprivileged"] ;
273 -> 274 ;
275 [label="c_charge_desc=Driving While License Revoked <= 0.5\ngini = 0.08\nsamples = 48\nvalue = [46, 2]\nclass = Unprivileged"] ;
274 -> 275 ;
276 [label="c_charge_desc=Grand Theft (Motor Vehicle) <= 0.5\ngini = 0.043\nsamples = 46\nvalue = [45, 1]\nclass = Unprivileged"] ;
275 -> 276 ;
277 [label="gini = 0.0\nsamples = 43\nvalue = [43, 0]\nclass = Unprivileged"] ;
276 -> 277 ;
278 [label="age <= 23.5\ngini = 0.444\nsamples = 3\nvalue = [2, 1]\nclass = Unprivileged"] ;
276 -> 278 ;
279 [label="gini = 0.5\nsamples = 2\nvalue = [1, 1]\nclass = Unprivileged"] ;
278 -> 279 ;
280 [label="gini = 0.0\nsamples = 1\nvalue = [1, 0]\nclass = Unprivileged"] ;
278 -> 280 ;
281 [label="juv_other_count <= 0.5\ngini = 0.5\nsamples = 2\nvalue = [1, 1]\nclass = Unprivileged"] ;
275 -> 281 ;
282 [label="gini = 0.0\nsamples = 1\nvalue = [0, 1]\nclass = Privileged"] ;
281 -> 282 ;
283 [label="gini = 0.0\nsamples = 1\nvalue = [1, 0]\nclass = Unprivileged"] ;
281 -> 283 ;
284 [label="gini = 0.5\nsamples = 2\nvalue = [1, 1]\nclass = Unprivileged"] ;
274 -> 284 ;
285 [label="age_cat=25 - 45 <= 0.5\ngini = 0.48\nsamples = 5\nvalue = [3, 2]\nclass = Unprivileged"] ;
273 -> 285 ;
286 [label="age <= 23.5\ngini = 0.5\nsamples = 4\nvalue = [2, 2]\nclass = Unprivileged"] ;
285 -> 286 ;
287 [label="gini = 0.5\nsamples = 2\nvalue = [1, 1]\nclass = Unprivileged"] ;
286 -> 287 ;
288 [label="gini = 0.5\nsamples = 2\nvalue = [1, 1]\nclass = Unprivileged"] ;
286 -> 288 ;
289 [label="gini = 0.0\nsamples = 1\nvalue = [1, 0]\nclass = Unprivileged"] ;
285 -> 289 ;
290 [label="gini = 0.0\nsamples = 1\nvalue = [0, 1]\nclass = Privileged"] ;
272 -> 290 ;
291 [label="c_charge_degree=M <= 0.5\ngini = 0.408\nsamples = 14\nvalue = [10, 4]\nclass = Unprivileged"] ;
271 -> 291 ;
292 [label="c_charge_desc=Poss3,4 Methylenedioxymethcath <= 0.5\ngini = 0.298\nsamples = 11\nvalue = [9, 2]\nclass = Unprivileged"] ;
291 -> 292 ;
293 [label="c_charge_desc=Crim Use of Personal ID Info <= 0.5\ngini = 0.18\nsamples = 10\nvalue = [9, 1]\nclass = Unprivileged"] ;
292 -> 293 ;
294 [label="gini = 0.0\nsamples = 8\nvalue = [8, 0]\nclass = Unprivileged"] ;
293 -> 294 ;
295 [label="gini = 0.5\nsamples = 2\nvalue = [1, 1]\nclass = Unprivileged"] ;
293 -> 295 ;
296 [label="gini = 0.0\nsamples = 1\nvalue = [0, 1]\nclass = Privileged"] ;
292 -> 296 ;
297 [label="c_charge_desc=Possess Cannabis/20 Grams Or Less <= 0.5\ngini = 0.444\nsamples = 3\nvalue = [1, 2]\nclass = Privileged"] ;
291 -> 297 ;
298 [label="gini = 0.5\nsamples = 2\nvalue = [1, 1]\nclass = Unprivileged"] ;
297 -> 298 ;
299 [label="gini = 0.0\nsamples = 1\nvalue = [0, 1]\nclass = Privileged"] ;
297 -> 299 ;
300 [label="age <= 25.5\ngini = 0.5\nsamples = 2\nvalue = [1, 1]\nclass = Unprivileged"] ;
270 -> 300 ;
301 [label="gini = 0.0\nsamples = 1\nvalue = [0, 1]\nclass = Privileged"] ;
300 -> 301 ;
302 [label="gini = 0.0\nsamples = 1\nvalue = [1, 0]\nclass = Unprivileged"] ;
300 -> 302 ;
303 [label="age_cat=Less than 25 <= 0.5\ngini = 0.5\nsamples = 2\nvalue = [1, 1]\nclass = Unprivileged"] ;
269 -> 303 ;
304 [label="gini = 0.0\nsamples = 1\nvalue = [1, 0]\nclass = Unprivileged"] ;
303 -> 304 ;
305 [label="gini = 0.0\nsamples = 1\nvalue = [0, 1]\nclass = Privileged"] ;
303 -> 305 ;
306 [label="c_charge_desc=Viol Injunct Domestic Violence <= 0.5\ngini = 0.067\nsamples = 29\nvalue = [28, 1]\nclass = Unprivileged"] ;
268 -> 306 ;
307 [label="gini = 0.0\nsamples = 27\nvalue = [27, 0]\nclass = Unprivileged"] ;
306 -> 307 ;
308 [label="age <= 24.0\ngini = 0.5\nsamples = 2\nvalue = [1, 1]\nclass = Unprivileged"] ;
306 -> 308 ;
309 [label="gini = 0.0\nsamples = 1\nvalue = [1, 0]\nclass = Unprivileged"] ;
308 -> 309 ;
310 [label="gini = 0.0\nsamples = 1\nvalue = [0, 1]\nclass = Privileged"] ;
308 -> 310 ;
311 [label="race <= 0.5\ngini = 0.48\nsamples = 5\nvalue = [3, 2]\nclass = Unprivileged"] ;
267 -> 311 ;
312 [label="gini = 0.0\nsamples = 3\nvalue = [3, 0]\nclass = Unprivileged"] ;
311 -> 312 ;
313 [label="gini = 0.0\nsamples = 2\nvalue = [0, 2]\nclass = Privileged"] ;
311 -> 313 ;
314 [label="age <= 25.5\ngini = 0.48\nsamples = 5\nvalue = [3, 2]\nclass = Unprivileged"] ;
266 -> 314 ;
315 [label="age_cat=25 - 45 <= 0.5\ngini = 0.444\nsamples = 3\nvalue = [1, 2]\nclass = Privileged"] ;
314 -> 315 ;
316 [label="gini = 0.5\nsamples = 2\nvalue = [1, 1]\nclass = Unprivileged"] ;
315 -> 316 ;
317 [label="gini = 0.0\nsamples = 1\nvalue = [0, 1]\nclass = Privileged"] ;
315 -> 317 ;
318 [label="gini = 0.0\nsamples = 2\nvalue = [2, 0]\nclass = Unprivileged"] ;
314 -> 318 ;
319 [label="juv_other_count <= 0.5\ngini = 0.5\nsamples = 4\nvalue = [2, 2]\nclass = Unprivileged"] ;
265 -> 319 ;
320 [label="race <= 0.5\ngini = 0.444\nsamples = 3\nvalue = [1, 2]\nclass = Privileged"] ;
319 -> 320 ;
321 [label="gini = 0.0\nsamples = 2\nvalue = [0, 2]\nclass = Privileged"] ;
320 -> 321 ;
322 [label="gini = 0.0\nsamples = 1\nvalue = [1, 0]\nclass = Unprivileged"] ;
320 -> 322 ;
323 [label="gini = 0.0\nsamples = 1\nvalue = [1, 0]\nclass = Unprivileged"] ;
319 -> 323 ;
324 [label="gini = 0.0\nsamples = 1\nvalue = [0, 1]\nclass = Privileged"] ;
264 -> 324 ;
325 [label="gini = 0.0\nsamples = 1\nvalue = [0, 1]\nclass = Privileged"] ;
263 -> 325 ;
326 [label="age <= 23.5\ngini = 0.444\nsamples = 3\nvalue = [1, 2]\nclass = Privileged"] ;
262 -> 326 ;
327 [label="gini = 0.5\nsamples = 2\nvalue = [1, 1]\nclass = Unprivileged"] ;
326 -> 327 ;
328 [label="gini = 0.0\nsamples = 1\nvalue = [0, 1]\nclass = Privileged"] ;
326 -> 328 ;
329 [label="race <= 0.5\ngini = 0.44\nsamples = 46\nvalue = [31, 15]\nclass = Unprivileged"] ;
261 -> 329 ;
330 [label="age <= 23.5\ngini = 0.472\nsamples = 34\nvalue = [21, 13]\nclass = Unprivileged"] ;
329 -> 330 ;
331 [label="gini = 0.48\nsamples = 10\nvalue = [4, 6]\nclass = Privileged"] ;
330 -> 331 ;
332 [label="age <= 25.5\ngini = 0.413\nsamples = 24\nvalue = [17, 7]\nclass = Unprivileged"] ;
330 -> 332 ;
333 [label="age_cat=Less than 25 <= 0.5\ngini = 0.43\nsamples = 16\nvalue = [11, 5]\nclass = Unprivileged"] ;
332 -> 333 ;
334 [label="gini = 0.444\nsamples = 6\nvalue = [4, 2]\nclass = Unprivileged"] ;
333 -> 334 ;
335 [label="gini = 0.42\nsamples = 10\nvalue = [7, 3]\nclass = Unprivileged"] ;
333 -> 335 ;
336 [label="gini = 0.375\nsamples = 8\nvalue = [6, 2]\nclass = Unprivileged"] ;
332 -> 336 ;
337 [label="age_cat=25 - 45 <= 0.5\ngini = 0.278\nsamples = 12\nvalue = [10, 2]\nclass = Unprivileged"] ;
329 -> 337 ;
338 [label="gini = 0.0\nsamples = 6\nvalue = [6, 0]\nclass = Unprivileged"] ;
337 -> 338 ;
339 [label="age <= 25.5\ngini = 0.444\nsamples = 6\nvalue = [4, 2]\nclass = Unprivileged"] ;
337 -> 339 ;
340 [label="gini = 0.0\nsamples = 1\nvalue = [0, 1]\nclass = Privileged"] ;
339 -> 340 ;
341 [label="gini = 0.32\nsamples = 5\nvalue = [4, 1]\nclass = Unprivileged"] ;
339 -> 341 ;
342 [label="gini = 0.0\nsamples = 1\nvalue = [0, 1]\nclass = Privileged"] ;
260 -> 342 ;
343 [label="gini = 0.0\nsamples = 1\nvalue = [0, 1]\nclass = Privileged"] ;
259 -> 343 ;
344 [label="gini = 0.0\nsamples = 1\nvalue = [0, 1]\nclass = Privileged"] ;
258 -> 344 ;
345 [label="gini = 0.0\nsamples = 1\nvalue = [0, 1]\nclass = Privileged"] ;
257 -> 345 ;
346 [label="gini = 0.0\nsamples = 1\nvalue = [0, 1]\nclass = Privileged"] ;
256 -> 346 ;
347 [label="gini = 0.0\nsamples = 1\nvalue = [0, 1]\nclass = Privileged"] ;
255 -> 347 ;
348 [label="gini = 0.0\nsamples = 1\nvalue = [0, 1]\nclass = Privileged"] ;
254 -> 348 ;
349 [label="gini = 0.0\nsamples = 1\nvalue = [0, 1]\nclass = Privileged"] ;
253 -> 349 ;
350 [label="gini = 0.0\nsamples = 1\nvalue = [0, 1]\nclass = Privileged"] ;
252 -> 350 ;
351 [label="gini = 0.0\nsamples = 1\nvalue = [0, 1]\nclass = Privileged"] ;
251 -> 351 ;
352 [label="c_charge_desc=Battery <= 0.5\ngini = 0.475\nsamples = 62\nvalue = [38, 24]\nclass = Unprivileged"] ;
250 -> 352 ;
353 [label="c_charge_desc=Driving Under The Influence <= 0.5\ngini = 0.491\nsamples = 46\nvalue = [26.0, 20.0]\nclass = Unprivileged"] ;
352 -> 353 ;
354 [label="c_charge_desc=Pos Cannabis W/Intent Sel/Del <= 0.5\ngini = 0.496\nsamples = 44\nvalue = [24, 20]\nclass = Unprivileged"] ;
353 -> 354 ;
355 [label="c_charge_desc=Child Abuse <= 0.5\ngini = 0.499\nsamples = 42\nvalue = [22, 20]\nclass = Unprivileged"] ;
354 -> 355 ;
356 [label="c_charge_desc=Possession Of Methamphetamine <= 0.5\ngini = 0.497\nsamples = 41\nvalue = [22, 19]\nclass = Unprivileged"] ;
355 -> 356 ;
357 [label="c_charge_desc=Manufacture Cannabis <= 0.5\ngini = 0.495\nsamples = 40\nvalue = [22, 18]\nclass = Unprivileged"] ;
356 -> 357 ;
358 [label="c_charge_desc=Criminal Mischief <= 0.5\ngini = 0.492\nsamples = 39\nvalue = [22, 17]\nclass = Unprivileged"] ;
357 -> 358 ;
359 [label="c_charge_desc=DUI Level 0.15 Or Minor In Veh <= 0.5\ngini = 0.488\nsamples = 38\nvalue = [22, 16]\nclass = Unprivileged"] ;
358 -> 359 ;
360 [label="c_charge_desc=Aggravated Battery / Pregnant <= 0.5\ngini = 0.482\nsamples = 37\nvalue = [22, 15]\nclass = Unprivileged"] ;
359 -> 360 ;
361 [label="c_charge_desc=Driving While License Revoked <= 0.5\ngini = 0.475\nsamples = 36\nvalue = [22, 14]\nclass = Unprivileged"] ;
360 -> 361 ;
362 [label="c_charge_desc=Possess Cannabis/20 Grams Or Less <= 0.5\ngini = 0.467\nsamples = 35\nvalue = [22, 13]\nclass = Unprivileged"] ;
361 -> 362 ;
363 [label="c_charge_desc=Uttering a Forged Instrument <= 0.5\ngini = 0.457\nsamples = 34\nvalue = [22, 12]\nclass = Unprivileged"] ;
362 -> 363 ;
364 [label="c_charge_desc=Fleeing Or Attmp Eluding A Leo <= 0.5\ngini = 0.444\nsamples = 33\nvalue = [22, 11]\nclass = Unprivileged"] ;
363 -> 364 ;
365 [label="c_charge_desc=Grand Theft in the 3rd Degree <= 0.5\ngini = 0.43\nsamples = 32\nvalue = [22, 10]\nclass = Unprivileged"] ;
364 -> 365 ;
366 [label="c_charge_desc=Viol Injunction Protect Dom Vi <= 0.5\ngini = 0.384\nsamples = 27\nvalue = [20, 7]\nclass = Unprivileged"] ;
365 -> 366 ;
367 [label="c_charge_desc=Possession of Cocaine <= 0.5\ngini = 0.355\nsamples = 26\nvalue = [20, 6]\nclass = Unprivileged"] ;
366 -> 367 ;
368 [label="c_charge_desc=arrest case no charge <= 0.5\ngini = 0.32\nsamples = 25\nvalue = [20, 5]\nclass = Unprivileged"] ;
367 -> 368 ;
369 [label="c_charge_desc=Susp Drivers Lic 1st Offense <= 0.5\ngini = 0.287\nsamples = 23\nvalue = [19, 4]\nclass = Unprivileged"] ;
368 -> 369 ;
370 [label="c_charge_desc=Burglary Unoccupied Dwelling <= 0.5\ngini = 0.245\nsamples = 21\nvalue = [18, 3]\nclass = Unprivileged"] ;
369 -> 370 ;
371 [label="c_charge_desc=Crim Use of Personal ID Info <= 0.5\ngini = 0.188\nsamples = 19\nvalue = [17, 2]\nclass = Unprivileged"] ;
370 -> 371 ;
372 [label="c_charge_desc=Poss3,4 Methylenedioxymethcath <= 0.5\ngini = 0.111\nsamples = 17\nvalue = [16, 1]\nclass = Unprivileged"] ;
371 -> 372 ;
373 [label="gini = 0.0\nsamples = 14\nvalue = [14, 0]\nclass = Unprivileged"] ;
372 -> 373 ;
374 [label="race <= 0.5\ngini = 0.444\nsamples = 3\nvalue = [2, 1]\nclass = Unprivileged"] ;
372 -> 374 ;
375 [label="gini = 0.0\nsamples = 2\nvalue = [2, 0]\nclass = Unprivileged"] ;
374 -> 375 ;
376 [label="gini = 0.0\nsamples = 1\nvalue = [0, 1]\nclass = Privileged"] ;
374 -> 376 ;
377 [label="gini = 0.5\nsamples = 2\nvalue = [1, 1]\nclass = Unprivileged"] ;
371 -> 377 ;
378 [label="race <= 0.5\ngini = 0.5\nsamples = 2\nvalue = [1, 1]\nclass = Unprivileged"] ;
370 -> 378 ;
379 [label="gini = 0.0\nsamples = 1\nvalue = [1, 0]\nclass = Unprivileged"] ;
378 -> 379 ;
380 [label="gini = 0.0\nsamples = 1\nvalue = [0, 1]\nclass = Privileged"] ;
378 -> 380 ;
381 [label="age <= 27.5\ngini = 0.5\nsamples = 2\nvalue = [1, 1]\nclass = Unprivileged"] ;
369 -> 381 ;
382 [label="gini = 0.0\nsamples = 1\nvalue = [1, 0]\nclass = Unprivileged"] ;
381 -> 382 ;
383 [label="gini = 0.0\nsamples = 1\nvalue = [0, 1]\nclass = Privileged"] ;
381 -> 383 ;
384 [label="race <= 0.5\ngini = 0.5\nsamples = 2\nvalue = [1, 1]\nclass = Unprivileged"] ;
368 -> 384 ;
385 [label="gini = 0.0\nsamples = 1\nvalue = [0, 1]\nclass = Privileged"] ;
384 -> 385 ;
386 [label="gini = 0.0\nsamples = 1\nvalue = [1, 0]\nclass = Unprivileged"] ;
384 -> 386 ;
387 [label="gini = 0.0\nsamples = 1\nvalue = [0, 1]\nclass = Privileged"] ;
367 -> 387 ;
388 [label="gini = 0.0\nsamples = 1\nvalue = [0, 1]\nclass = Privileged"] ;
366 -> 388 ;
389 [label="age <= 27.5\ngini = 0.48\nsamples = 5\nvalue = [2, 3]\nclass = Privileged"] ;
365 -> 389 ;
390 [label="race <= 0.5\ngini = 0.444\nsamples = 3\nvalue = [1, 2]\nclass = Privileged"] ;
389 -> 390 ;
391 [label="gini = 0.5\nsamples = 2\nvalue = [1, 1]\nclass = Unprivileged"] ;
390 -> 391 ;
392 [label="gini = 0.0\nsamples = 1\nvalue = [0, 1]\nclass = Privileged"] ;
390 -> 392 ;
393 [label="gini = 0.5\nsamples = 2\nvalue = [1, 1]\nclass = Unprivileged"] ;
389 -> 393 ;
394 [label="gini = 0.0\nsamples = 1\nvalue = [0, 1]\nclass = Privileged"] ;
364 -> 394 ;
395 [label="gini = 0.0\nsamples = 1\nvalue = [0, 1]\nclass = Privileged"] ;
363 -> 395 ;
396 [label="gini = 0.0\nsamples = 1\nvalue = [0, 1]\nclass = Privileged"] ;
362 -> 396 ;
397 [label="gini = 0.0\nsamples = 1\nvalue = [0, 1]\nclass = Privileged"] ;
361 -> 397 ;
398 [label="gini = 0.0\nsamples = 1\nvalue = [0, 1]\nclass = Privileged"] ;
360 -> 398 ;
399 [label="gini = 0.0\nsamples = 1\nvalue = [0, 1]\nclass = Privileged"] ;
359 -> 399 ;
400 [label="gini = 0.0\nsamples = 1\nvalue = [0, 1]\nclass = Privileged"] ;
358 -> 400 ;
401 [label="gini = 0.0\nsamples = 1\nvalue = [0, 1]\nclass = Privileged"] ;
357 -> 401 ;
402 [label="gini = 0.0\nsamples = 1\nvalue = [0, 1]\nclass = Privileged"] ;
356 -> 402 ;
403 [label="gini = 0.0\nsamples = 1\nvalue = [0, 1]\nclass = Privileged"] ;
355 -> 403 ;
404 [label="gini = 0.0\nsamples = 2\nvalue = [2, 0]\nclass = Unprivileged"] ;
354 -> 404 ;
405 [label="gini = 0.0\nsamples = 2\nvalue = [2, 0]\nclass = Unprivileged"] ;
353 -> 405 ;
406 [label="age <= 27.5\ngini = 0.375\nsamples = 16\nvalue = [12, 4]\nclass = Unprivileged"] ;
352 -> 406 ;
407 [label="race <= 0.5\ngini = 0.165\nsamples = 11\nvalue = [10, 1]\nclass = Unprivileged"] ;
406 -> 407 ;
408 [label="gini = 0.18\nsamples = 10\nvalue = [9, 1]\nclass = Unprivileged"] ;
407 -> 408 ;
409 [label="gini = 0.0\nsamples = 1\nvalue = [1, 0]\nclass = Unprivileged"] ;
407 -> 409 ;
410 [label="race <= 0.5\ngini = 0.48\nsamples = 5\nvalue = [2, 3]\nclass = Privileged"] ;
406 -> 410 ;
411 [label="gini = 0.375\nsamples = 4\nvalue = [1, 3]\nclass = Privileged"] ;
410 -> 411 ;
412 [label="gini = 0.0\nsamples = 1\nvalue = [1, 0]\nclass = Unprivileged"] ;
410 -> 412 ;
413 [label="age_cat=Less than 25 <= 0.5\ngini = 0.375\nsamples = 4\nvalue = [1, 3]\nclass = Privileged"] ;
249 -> 413 ;
414 [label="race <= 0.5\ngini = 0.444\nsamples = 3\nvalue = [1, 2]\nclass = Privileged"] ;
413 -> 414 ;
415 [label="gini = 0.5\nsamples = 2\nvalue = [1, 1]\nclass = Unprivileged"] ;
414 -> 415 ;
416 [label="gini = 0.0\nsamples = 1\nvalue = [0, 1]\nclass = Privileged"] ;
414 -> 416 ;
417 [label="gini = 0.0\nsamples = 1\nvalue = [0, 1]\nclass = Privileged"] ;
413 -> 417 ;
418 [label="gini = 0.0\nsamples = 2\nvalue = [0, 2]\nclass = Privileged"] ;
248 -> 418 ;
419 [label="gini = 0.0\nsamples = 2\nvalue = [0, 2]\nclass = Privileged"] ;
247 -> 419 ;
420 [label="gini = 0.0\nsamples = 2\nvalue = [0, 2]\nclass = Privileged"] ;
246 -> 420 ;
421 [label="gini = 0.0\nsamples = 2\nvalue = [0, 2]\nclass = Privileged"] ;
245 -> 421 ;
422 [label="age <= 25.5\ngini = 0.32\nsamples = 5\nvalue = [1, 4]\nclass = Privileged"] ;
244 -> 422 ;
423 [label="gini = 0.0\nsamples = 3\nvalue = [0, 3]\nclass = Privileged"] ;
422 -> 423 ;
424 [label="age <= 27.0\ngini = 0.5\nsamples = 2\nvalue = [1, 1]\nclass = Unprivileged"] ;
422 -> 424 ;
425 [label="gini = 0.0\nsamples = 1\nvalue = [1, 0]\nclass = Unprivileged"] ;
424 -> 425 ;
426 [label="gini = 0.0\nsamples = 1\nvalue = [0, 1]\nclass = Privileged"] ;
424 -> 426 ;
427 [label="c_charge_desc=Possession of Hydromorphone <= 0.5\ngini = 0.261\nsamples = 97\nvalue = [82, 15]\nclass = Unprivileged"] ;
243 -> 427 ;
428 [label="c_charge_desc=Dealing in Stolen Property <= 0.5\ngini = 0.249\nsamples = 96\nvalue = [82, 14]\nclass = Unprivileged"] ;
427 -> 428 ;
429 [label="c_charge_desc=Burglary Dwelling Assault/Batt <= 0.5\ngini = 0.236\nsamples = 95\nvalue = [82, 13]\nclass = Unprivileged"] ;
428 -> 429 ;
430 [label="c_charge_desc=Aggravated Assault W/dead Weap <= 0.5\ngini = 0.223\nsamples = 94\nvalue = [82.0, 12.0]\nclass = Unprivileged"] ;
429 -> 430 ;
431 [label="c_charge_desc=Carrying Concealed Firearm <= 0.5\ngini = 0.209\nsamples = 93\nvalue = [82, 11]\nclass = Unprivileged"] ;
430 -> 431 ;
432 [label="c_charge_desc=Neglect Child / Bodily Harm <= 0.5\ngini = 0.194\nsamples = 92\nvalue = [82, 10]\nclass = Unprivileged"] ;
431 -> 432 ;
433 [label="c_charge_desc=Resist Officer w/Violence <= 0.5\ngini = 0.178\nsamples = 91\nvalue = [82, 9]\nclass = Unprivileged"] ;
432 -> 433 ;
434 [label="c_charge_desc=Driving Under The Influence <= 0.5\ngini = 0.164\nsamples = 89\nvalue = [81, 8]\nclass = Unprivileged"] ;
433 -> 434 ;
435 [label="c_charge_desc=Uttering a Forged Instrument <= 0.5\ngini = 0.148\nsamples = 87\nvalue = [80, 7]\nclass = Unprivileged"] ;
434 -> 435 ;
436 [label="c_charge_desc=Possession of Cocaine <= 0.5\ngini = 0.133\nsamples = 84\nvalue = [78, 6]\nclass = Unprivileged"] ;
435 -> 436 ;
437 [label="c_charge_desc=Battery <= 0.5\ngini = 0.117\nsamples = 80\nvalue = [75, 5]\nclass = Unprivileged"] ;
436 -> 437 ;
438 [label="c_charge_desc=Grand Theft in the 3rd Degree <= 0.5\ngini = 0.045\nsamples = 43\nvalue = [42, 1]\nclass = Unprivileged"] ;
437 -> 438 ;
439 [label="gini = 0.0\nsamples = 36\nvalue = [36, 0]\nclass = Unprivileged"] ;
438 -> 439 ;
440 [label="race <= 0.5\ngini = 0.245\nsamples = 7\nvalue = [6, 1]\nclass = Unprivileged"] ;
438 -> 440 ;
441 [label="gini = 0.0\nsamples = 5\nvalue = [5, 0]\nclass = Unprivileged"] ;
440 -> 441 ;
442 [label="age_cat=Less than 25 <= 0.5\ngini = 0.5\nsamples = 2\nvalue = [1, 1]\nclass = Unprivileged"] ;
440 -> 442 ;
443 [label="gini = 0.0\nsamples = 1\nvalue = [1, 0]\nclass = Unprivileged"] ;
442 -> 443 ;
444 [label="gini = 0.0\nsamples = 1\nvalue = [0, 1]\nclass = Privileged"] ;
442 -> 444 ;
445 [label="race <= 0.5\ngini = 0.193\nsamples = 37\nvalue = [33, 4]\nclass = Unprivileged"] ;
437 -> 445 ;
446 [label="age <= 27.5\ngini = 0.231\nsamples = 30\nvalue = [26, 4]\nclass = Unprivileged"] ;
445 -> 446 ;
447 [label="age <= 26.5\ngini = 0.269\nsamples = 25\nvalue = [21, 4]\nclass = Unprivileged"] ;
446 -> 447 ;
448 [label="age <= 25.5\ngini = 0.188\nsamples = 19\nvalue = [17, 2]\nclass = Unprivileged"] ;
447 -> 448 ;
449 [label="age <= 24.5\ngini = 0.219\nsamples = 16\nvalue = [14, 2]\nclass = Unprivileged"] ;
448 -> 449 ;
450 [label="age <= 23.5\ngini = 0.153\nsamples = 12\nvalue = [11, 1]\nclass = Unprivileged"] ;
449 -> 450 ;
451 [label="gini = 0.219\nsamples = 8\nvalue = [7, 1]\nclass = Unprivileged"] ;
450 -> 451 ;
452 [label="gini = 0.0\nsamples = 4\nvalue = [4, 0]\nclass = Unprivileged"] ;
450 -> 452 ;
453 [label="juv_other_count <= 0.5\ngini = 0.375\nsamples = 4\nvalue = [3, 1]\nclass = Unprivileged"] ;
449 -> 453 ;
454 [label="gini = 0.444\nsamples = 3\nvalue = [2, 1]\nclass = Unprivileged"] ;
453 -> 454 ;
455 [label="gini = 0.0\nsamples = 1\nvalue = [1, 0]\nclass = Unprivileged"] ;
453 -> 455 ;
456 [label="gini = 0.0\nsamples = 3\nvalue = [3, 0]\nclass = Unprivileged"] ;
448 -> 456 ;
457 [label="gini = 0.444\nsamples = 6\nvalue = [4, 2]\nclass = Unprivileged"] ;
447 -> 457 ;
458 [label="gini = 0.0\nsamples = 5\nvalue = [5, 0]\nclass = Unprivileged"] ;
446 -> 458 ;
459 [label="gini = 0.0\nsamples = 7\nvalue = [7, 0]\nclass = Unprivileged"] ;
445 -> 459 ;
460 [label="age <= 27.0\ngini = 0.375\nsamples = 4\nvalue = [3, 1]\nclass = Unprivileged"] ;
436 -> 460 ;
461 [label="gini = 0.0\nsamples = 2\nvalue = [2, 0]\nclass = Unprivileged"] ;
460 -> 461 ;
462 [label="gini = 0.5\nsamples = 2\nvalue = [1, 1]\nclass = Unprivileged"] ;
460 -> 462 ;
463 [label="race <= 0.5\ngini = 0.444\nsamples = 3\nvalue = [2, 1]\nclass = Unprivileged"] ;
435 -> 463 ;
464 [label="gini = 0.5\nsamples = 2\nvalue = [1, 1]\nclass = Unprivileged"] ;
463 -> 464 ;
465 [label="gini = 0.0\nsamples = 1\nvalue = [1, 0]\nclass = Unprivileged"] ;
463 -> 465 ;
466 [label="age <= 26.0\ngini = 0.5\nsamples = 2\nvalue = [1, 1]\nclass = Unprivileged"] ;
434 -> 466 ;
467 [label="gini = 0.0\nsamples = 1\nvalue = [1, 0]\nclass = Unprivileged"] ;
466 -> 467 ;
468 [label="gini = 0.0\nsamples = 1\nvalue = [0, 1]\nclass = Privileged"] ;
466 -> 468 ;
469 [label="age <= 23.5\ngini = 0.5\nsamples = 2\nvalue = [1, 1]\nclass = Unprivileged"] ;
433 -> 469 ;
470 [label="gini = 0.0\nsamples = 1\nvalue = [0, 1]\nclass = Privileged"] ;
469 -> 470 ;
471 [label="gini = 0.0\nsamples = 1\nvalue = [1, 0]\nclass = Unprivileged"] ;
469 -> 471 ;
472 [label="gini = 0.0\nsamples = 1\nvalue = [0, 1]\nclass = Privileged"] ;
432 -> 472 ;
473 [label="gini = 0.0\nsamples = 1\nvalue = [0, 1]\nclass = Privileged"] ;
431 -> 473 ;
474 [label="gini = 0.0\nsamples = 1\nvalue = [0, 1]\nclass = Privileged"] ;
430 -> 474 ;
475 [label="gini = 0.0\nsamples = 1\nvalue = [0, 1]\nclass = Privileged"] ;
429 -> 475 ;
476 [label="gini = 0.0\nsamples = 1\nvalue = [0, 1]\nclass = Privileged"] ;
428 -> 476 ;
477 [label="gini = 0.0\nsamples = 1\nvalue = [0, 1]\nclass = Privileged"] ;
427 -> 477 ;
478 [label="priors_count <= 1.5\ngini = 0.498\nsamples = 513\nvalue = [242, 271]\nclass = Privileged"] ;
82 -> 478 ;
479 [label="age_cat=25 - 45 <= 0.5\ngini = 0.499\nsamples = 317\nvalue = [166, 151]\nclass = Unprivileged"] ;
478 -> 479 ;
480 [label="race <= 0.5\ngini = 0.497\nsamples = 190\nvalue = [88, 102]\nclass = Privileged"] ;
479 -> 480 ;
481 [label="juv_misd_count <= 0.5\ngini = 0.478\nsamples = 147\nvalue = [58, 89]\nclass = Privileged"] ;
480 -> 481 ;
482 [label="sex <= 0.5\ngini = 0.47\nsamples = 138\nvalue = [52, 86]\nclass = Privileged"] ;
481 -> 482 ;
483 [label="c_charge_desc=Unlaw LicTag/Sticker Attach <= 0.5\ngini = 0.458\nsamples = 121\nvalue = [43, 78]\nclass = Privileged"] ;
482 -> 483 ;
484 [label="c_charge_desc=Driving While License Revoked <= 0.5\ngini = 0.455\nsamples = 120\nvalue = [42, 78]\nclass = Privileged"] ;
483 -> 484 ;
485 [label="c_charge_desc=Purchase Cannabis <= 0.5\ngini = 0.452\nsamples = 119\nvalue = [41, 78]\nclass = Privileged"] ;
484 -> 485 ;
486 [label="c_charge_desc=Poss/Sell/Del Cocaine 1000FT Sch <= 0.5\ngini = 0.448\nsamples = 118\nvalue = [40, 78]\nclass = Privileged"] ;
485 -> 486 ;
487 [label="c_charge_desc=Uttering a Forged Instrument <= 0.5\ngini = 0.444\nsamples = 117\nvalue = [39, 78]\nclass = Privileged"] ;
486 -> 487 ;
488 [label="c_charge_desc=Grand Theft (Motor Vehicle) <= 0.5\ngini = 0.441\nsamples = 116\nvalue = [38, 78]\nclass = Privileged"] ;
487 -> 488 ;
489 [label="c_charge_desc=Agg Fleeing and Eluding <= 0.5\ngini = 0.436\nsamples = 115\nvalue = [37, 78]\nclass = Privileged"] ;
488 -> 489 ;
490 [label="c_charge_desc=Possession Burglary Tools <= 0.5\ngini = 0.432\nsamples = 114\nvalue = [36, 78]\nclass = Privileged"] ;
489 -> 490 ;
491 [label="c_charge_desc=Fleeing or Eluding a LEO <= 0.5\ngini = 0.428\nsamples = 113\nvalue = [35, 78]\nclass = Privileged"] ;
490 -> 491 ;
492 [label="c_charge_desc=Criminal Mischief>$200<$1000 <= 0.5\ngini = 0.423\nsamples = 112\nvalue = [34, 78]\nclass = Privileged"] ;
491 -> 492 ;
493 [label="c_charge_desc=Leave Acc/Attend Veh/More $50 <= 0.5\ngini = 0.418\nsamples = 111\nvalue = [33, 78]\nclass = Privileged"] ;
492 -> 493 ;
494 [label="c_charge_desc=False Imprisonment <= 0.5\ngini = 0.413\nsamples = 110\nvalue = [32, 78]\nclass = Privileged"] ;
493 -> 494 ;
495 [label="c_charge_desc=Battery <= 0.5\ngini = 0.407\nsamples = 109\nvalue = [31, 78]\nclass = Privileged"] ;
494 -> 495 ;
496 [label="age <= 21.5\ngini = 0.378\nsamples = 91\nvalue = [23, 68]\nclass = Privileged"] ;
495 -> 496 ;
497 [label="c_charge_desc=Burglary Unoccupied Dwelling <= 0.5\ngini = 0.463\nsamples = 33\nvalue = [12, 21]\nclass = Privileged"] ;
496 -> 497 ;
498 [label="c_charge_desc=Grand Theft Dwell Property <= 0.5\ngini = 0.42\nsamples = 30\nvalue = [9, 21]\nclass = Privileged"] ;
497 -> 498 ;
499 [label="c_charge_desc=Resist/Obstruct W/O Violence <= 0.5\ngini = 0.4\nsamples = 29\nvalue = [8, 21]\nclass = Privileged"] ;
498 -> 499 ;
500 [label="c_charge_desc=Robbery Sudd Snatch No Weapon <= 0.5\ngini = 0.375\nsamples = 28\nvalue = [7, 21]\nclass = Privileged"] ;
499 -> 500 ;
501 [label="c_charge_desc=arrest case no charge <= 0.5\ngini = 0.346\nsamples = 27\nvalue = [6, 21]\nclass = Privileged"] ;
500 -> 501 ;
502 [label="c_charge_desc=Possession of Cocaine <= 0.5\ngini = 0.208\nsamples = 17\nvalue = [2, 15]\nclass = Privileged"] ;
501 -> 502 ;
503 [label="c_charge_desc=Grand Theft in the 3rd Degree <= 0.5\ngini = 0.124\nsamples = 15\nvalue = [1, 14]\nclass = Privileged"] ;
502 -> 503 ;
504 [label="gini = 0.0\nsamples = 8\nvalue = [0, 8]\nclass = Privileged"] ;
503 -> 504 ;
505 [label="gini = 0.245\nsamples = 7\nvalue = [1, 6]\nclass = Privileged"] ;
503 -> 505 ;
506 [label="juv_other_count <= 0.5\ngini = 0.5\nsamples = 2\nvalue = [1, 1]\nclass = Unprivileged"] ;
502 -> 506 ;
507 [label="gini = 0.0\nsamples = 1\nvalue = [1, 0]\nclass = Unprivileged"] ;
506 -> 507 ;
508 [label="gini = 0.0\nsamples = 1\nvalue = [0, 1]\nclass = Privileged"] ;
506 -> 508 ;
509 [label="juv_other_count <= 1.5\ngini = 0.48\nsamples = 10\nvalue = [4, 6]\nclass = Privileged"] ;
501 -> 509 ;
510 [label="juv_other_count <= 0.5\ngini = 0.469\nsamples = 8\nvalue = [3, 5]\nclass = Privileged"] ;
509 -> 510 ;
511 [label="juv_fel_count <= 0.5\ngini = 0.49\nsamples = 7\nvalue = [3, 4]\nclass = Privileged"] ;
510 -> 511 ;
512 [label="gini = 0.48\nsamples = 5\nvalue = [2, 3]\nclass = Privileged"] ;
511 -> 512 ;
513 [label="gini = 0.5\nsamples = 2\nvalue = [1, 1]\nclass = Unprivileged"] ;
511 -> 513 ;
514 [label="gini = 0.0\nsamples = 1\nvalue = [0, 1]\nclass = Privileged"] ;
510 -> 514 ;
515 [label="juv_fel_count <= 0.5\ngini = 0.5\nsamples = 2\nvalue = [1, 1]\nclass = Unprivileged"] ;
509 -> 515 ;
516 [label="gini = 0.0\nsamples = 1\nvalue = [1, 0]\nclass = Unprivileged"] ;
515 -> 516 ;
517 [label="gini = 0.0\nsamples = 1\nvalue = [0, 1]\nclass = Privileged"] ;
515 -> 517 ;
518 [label="gini = 0.0\nsamples = 1\nvalue = [1, 0]\nclass = Unprivileged"] ;
500 -> 518 ;
519 [label="gini = 0.0\nsamples = 1\nvalue = [1, 0]\nclass = Unprivileged"] ;
499 -> 519 ;
520 [label="gini = 0.0\nsamples = 1\nvalue = [1, 0]\nclass = Unprivileged"] ;
498 -> 520 ;
521 [label="gini = 0.0\nsamples = 3\nvalue = [3, 0]\nclass = Unprivileged"] ;
497 -> 521 ;
522 [label="c_charge_desc=Possession of Cannabis <= 0.5\ngini = 0.307\nsamples = 58\nvalue = [11, 47]\nclass = Privileged"] ;
496 -> 522 ;
523 [label="c_charge_degree=F <= 0.5\ngini = 0.289\nsamples = 57\nvalue = [10, 47]\nclass = Privileged"] ;
522 -> 523 ;
524 [label="gini = 0.0\nsamples = 8\nvalue = [0, 8]\nclass = Privileged"] ;
523 -> 524 ;
525 [label="age <= 22.5\ngini = 0.325\nsamples = 49\nvalue = [10, 39]\nclass = Privileged"] ;
523 -> 525 ;
526 [label="c_charge_desc=Burglary Structure Unoccup <= 0.5\ngini = 0.188\nsamples = 19\nvalue = [2, 17]\nclass = Privileged"] ;
525 -> 526 ;
527 [label="c_charge_desc=arrest case no charge <= 0.5\ngini = 0.105\nsamples = 18\nvalue = [1, 17]\nclass = Privileged"] ;
526 -> 527 ;
528 [label="gini = 0.0\nsamples = 14\nvalue = [0, 14]\nclass = Privileged"] ;
527 -> 528 ;
529 [label="gini = 0.375\nsamples = 4\nvalue = [1, 3]\nclass = Privileged"] ;
527 -> 529 ;
530 [label="gini = 0.0\nsamples = 1\nvalue = [1, 0]\nclass = Unprivileged"] ;
526 -> 530 ;
531 [label="c_charge_desc=Grand Theft in the 3rd Degree <= 0.5\ngini = 0.391\nsamples = 30\nvalue = [8, 22]\nclass = Privileged"] ;
525 -> 531 ;
532 [label="c_charge_desc=Pos Cannabis W/Intent Sel/Del <= 0.5\ngini = 0.34\nsamples = 23\nvalue = [5, 18]\nclass = Privileged"] ;
531 -> 532 ;
533 [label="c_charge_desc=Possession of Codeine <= 0.5\ngini = 0.308\nsamples = 21\nvalue = [4, 17]\nclass = Privileged"] ;
532 -> 533 ;
534 [label="c_charge_desc=arrest case no charge <= 0.5\ngini = 0.266\nsamples = 19\nvalue = [3, 16]\nclass = Privileged"] ;
533 -> 534 ;
535 [label="juv_other_count <= 0.5\ngini = 0.142\nsamples = 13\nvalue = [1, 12]\nclass = Privileged"] ;
534 -> 535 ;
536 [label="gini = 0.0\nsamples = 11\nvalue = [0, 11]\nclass = Privileged"] ;
535 -> 536 ;
537 [label="c_charge_desc=Poss Pyrrolidinovalerophenone <= 0.5\ngini = 0.5\nsamples = 2\nvalue = [1, 1]\nclass = Unprivileged"] ;
535 -> 537 ;
538 [label="gini = 0.0\nsamples = 1\nvalue = [1, 0]\nclass = Unprivileged"] ;
537 -> 538 ;
539 [label="gini = 0.0\nsamples = 1\nvalue = [0, 1]\nclass = Privileged"] ;
537 -> 539 ;
540 [label="juv_other_count <= 0.5\ngini = 0.444\nsamples = 6\nvalue = [2, 4]\nclass = Privileged"] ;
534 -> 540 ;
541 [label="age <= 23.5\ngini = 0.5\nsamples = 4\nvalue = [2, 2]\nclass = Unprivileged"] ;
540 -> 541 ;
542 [label="gini = 0.0\nsamples = 1\nvalue = [1, 0]\nclass = Unprivileged"] ;
541 -> 542 ;
543 [label="gini = 0.444\nsamples = 3\nvalue = [1, 2]\nclass = Privileged"] ;
541 -> 543 ;
544 [label="gini = 0.0\nsamples = 2\nvalue = [0, 2]\nclass = Privileged"] ;
540 -> 544 ;
545 [label="age <= 23.5\ngini = 0.5\nsamples = 2\nvalue = [1, 1]\nclass = Unprivileged"] ;
533 -> 545 ;
546 [label="gini = 0.0\nsamples = 1\nvalue = [0, 1]\nclass = Privileged"] ;
545 -> 546 ;
547 [label="gini = 0.0\nsamples = 1\nvalue = [1, 0]\nclass = Unprivileged"] ;
545 -> 547 ;
548 [label="juv_other_count <= 0.5\ngini = 0.5\nsamples = 2\nvalue = [1, 1]\nclass = Unprivileged"] ;
532 -> 548 ;
549 [label="gini = 0.0\nsamples = 1\nvalue = [1, 0]\nclass = Unprivileged"] ;
548 -> 549 ;
550 [label="gini = 0.0\nsamples = 1\nvalue = [0, 1]\nclass = Privileged"] ;
548 -> 550 ;
551 [label="juv_other_count <= 2.0\ngini = 0.49\nsamples = 7\nvalue = [3, 4]\nclass = Privileged"] ;
531 -> 551 ;
552 [label="juv_other_count <= 0.5\ngini = 0.5\nsamples = 6\nvalue = [3, 3]\nclass = Unprivileged"] ;
551 -> 552 ;
553 [label="gini = 0.48\nsamples = 5\nvalue = [2, 3]\nclass = Privileged"] ;
552 -> 553 ;
554 [label="gini = 0.0\nsamples = 1\nvalue = [1, 0]\nclass = Unprivileged"] ;
552 -> 554 ;
555 [label="gini = 0.0\nsamples = 1\nvalue = [0, 1]\nclass = Privileged"] ;
551 -> 555 ;
556 [label="gini = 0.0\nsamples = 1\nvalue = [1, 0]\nclass = Unprivileged"] ;
522 -> 556 ;
557 [label="juv_fel_count <= 0.5\ngini = 0.494\nsamples = 18\nvalue = [8, 10]\nclass = Privileged"] ;
495 -> 557 ;
558 [label="juv_other_count <= 1.5\ngini = 0.469\nsamples = 16\nvalue = [6, 10]\nclass = Privileged"] ;
557 -> 558 ;
559 [label="age <= 23.5\ngini = 0.444\nsamples = 15\nvalue = [5, 10]\nclass = Privileged"] ;
558 -> 559 ;
560 [label="age <= 21.5\ngini = 0.245\nsamples = 7\nvalue = [1, 6]\nclass = Privileged"] ;
559 -> 560 ;
561 [label="gini = 0.5\nsamples = 2\nvalue = [1, 1]\nclass = Unprivileged"] ;
560 -> 561 ;
562 [label="gini = 0.0\nsamples = 5\nvalue = [0, 5]\nclass = Privileged"] ;
560 -> 562 ;
563 [label="gini = 0.5\nsamples = 8\nvalue = [4, 4]\nclass = Unprivileged"] ;
559 -> 563 ;
564 [label="gini = 0.0\nsamples = 1\nvalue = [1, 0]\nclass = Unprivileged"] ;
558 -> 564 ;
565 [label="gini = 0.0\nsamples = 2\nvalue = [2, 0]\nclass = Unprivileged"] ;
557 -> 565 ;
566 [label="gini = 0.0\nsamples = 1\nvalue = [1, 0]\nclass = Unprivileged"] ;
494 -> 566 ;
567 [label="gini = 0.0\nsamples = 1\nvalue = [1, 0]\nclass = Unprivileged"] ;
493 -> 567 ;
568 [label="gini = 0.0\nsamples = 1\nvalue = [1, 0]\nclass = Unprivileged"] ;
492 -> 568 ;
569 [label="gini = 0.0\nsamples = 1\nvalue = [1, 0]\nclass = Unprivileged"] ;
491 -> 569 ;
570 [label="gini = 0.0\nsamples = 1\nvalue = [1, 0]\nclass = Unprivileged"] ;
490 -> 570 ;
571 [label="gini = 0.0\nsamples = 1\nvalue = [1, 0]\nclass = Unprivileged"] ;
489 -> 571 ;
572 [label="gini = 0.0\nsamples = 1\nvalue = [1, 0]\nclass = Unprivileged"] ;
488 -> 572 ;
573 [label="gini = 0.0\nsamples = 1\nvalue = [1, 0]\nclass = Unprivileged"] ;
487 -> 573 ;
574 [label="gini = 0.0\nsamples = 1\nvalue = [1, 0]\nclass = Unprivileged"] ;
486 -> 574 ;
575 [label="gini = 0.0\nsamples = 1\nvalue = [1, 0]\nclass = Unprivileged"] ;
485 -> 575 ;
576 [label="gini = 0.0\nsamples = 1\nvalue = [1, 0]\nclass = Unprivileged"] ;
484 -> 576 ;
577 [label="gini = 0.0\nsamples = 1\nvalue = [1, 0]\nclass = Unprivileged"] ;
483 -> 577 ;
578 [label="c_charge_desc=Sale/Del Cannabis At/Near Scho <= 0.5\ngini = 0.498\nsamples = 17\nvalue = [9, 8]\nclass = Unprivileged"] ;
482 -> 578 ;
579 [label="c_charge_desc=Poss Pyrrolidinovalerophenone <= 0.5\ngini = 0.492\nsamples = 16\nvalue = [9, 7]\nclass = Unprivileged"] ;
578 -> 579 ;
580 [label="c_charge_desc=Trespass Struct/Conveyance <= 0.5\ngini = 0.48\nsamples = 15\nvalue = [9, 6]\nclass = Unprivileged"] ;
579 -> 580 ;
581 [label="c_charge_desc=Burglary Conveyance Unoccup <= 0.5\ngini = 0.459\nsamples = 14\nvalue = [9, 5]\nclass = Unprivileged"] ;
580 -> 581 ;
582 [label="c_charge_desc=Battery <= 0.5\ngini = 0.426\nsamples = 13\nvalue = [9, 4]\nclass = Unprivileged"] ;
581 -> 582 ;
583 [label="age <= 22.5\ngini = 0.346\nsamples = 9\nvalue = [7, 2]\nclass = Unprivileged"] ;
582 -> 583 ;
584 [label="c_charge_desc=Possession Of Amphetamine <= 0.5\ngini = 0.5\nsamples = 4\nvalue = [2, 2]\nclass = Unprivileged"] ;
583 -> 584 ;
585 [label="c_charge_desc=Grand Theft in the 3rd Degree <= 0.5\ngini = 0.444\nsamples = 3\nvalue = [1, 2]\nclass = Privileged"] ;
584 -> 585 ;
586 [label="gini = 0.0\nsamples = 1\nvalue = [0, 1]\nclass = Privileged"] ;
585 -> 586 ;
587 [label="age <= 21.5\ngini = 0.5\nsamples = 2\nvalue = [1, 1]\nclass = Unprivileged"] ;
585 -> 587 ;
588 [label="gini = 0.0\nsamples = 1\nvalue = [1, 0]\nclass = Unprivileged"] ;
587 -> 588 ;
589 [label="gini = 0.0\nsamples = 1\nvalue = [0, 1]\nclass = Privileged"] ;
587 -> 589 ;
590 [label="gini = 0.0\nsamples = 1\nvalue = [1, 0]\nclass = Unprivileged"] ;
584 -> 590 ;
591 [label="gini = 0.0\nsamples = 5\nvalue = [5, 0]\nclass = Unprivileged"] ;
583 -> 591 ;
592 [label="age <= 23.5\ngini = 0.5\nsamples = 4\nvalue = [2, 2]\nclass = Unprivileged"] ;
582 -> 592 ;
593 [label="gini = 0.0\nsamples = 2\nvalue = [2, 0]\nclass = Unprivileged"] ;
592 -> 593 ;
594 [label="gini = 0.0\nsamples = 2\nvalue = [0, 2]\nclass = Privileged"] ;
592 -> 594 ;
595 [label="gini = 0.0\nsamples = 1\nvalue = [0, 1]\nclass = Privileged"] ;
581 -> 595 ;
596 [label="gini = 0.0\nsamples = 1\nvalue = [0, 1]\nclass = Privileged"] ;
580 -> 596 ;
597 [label="gini = 0.0\nsamples = 1\nvalue = [0, 1]\nclass = Privileged"] ;
579 -> 597 ;
598 [label="gini = 0.0\nsamples = 1\nvalue = [0, 1]\nclass = Privileged"] ;
578 -> 598 ;
599 [label="c_charge_desc=Battery on Law Enforc Officer <= 0.5\ngini = 0.444\nsamples = 9\nvalue = [6, 3]\nclass = Unprivileged"] ;
481 -> 599 ;
600 [label="c_charge_desc=False Ownership Info/Pawn Item <= 0.5\ngini = 0.375\nsamples = 8\nvalue = [6, 2]\nclass = Unprivileged"] ;
599 -> 600 ;
601 [label="c_charge_desc=arrest case no charge <= 0.5\ngini = 0.245\nsamples = 7\nvalue = [6, 1]\nclass = Unprivileged"] ;
600 -> 601 ;
602 [label="gini = 0.0\nsamples = 6\nvalue = [6, 0]\nclass = Unprivileged"] ;
601 -> 602 ;
603 [label="gini = 0.0\nsamples = 1\nvalue = [0, 1]\nclass = Privileged"] ;
601 -> 603 ;
604 [label="gini = 0.0\nsamples = 1\nvalue = [0, 1]\nclass = Privileged"] ;
600 -> 604 ;
605 [label="gini = 0.0\nsamples = 1\nvalue = [0, 1]\nclass = Privileged"] ;
599 -> 605 ;
606 [label="sex <= 0.5\ngini = 0.422\nsamples = 43\nvalue = [30, 13]\nclass = Unprivileged"] ;
480 -> 606 ;
607 [label="c_charge_desc=Burglary Conveyance Unoccup <= 0.5\ngini = 0.467\nsamples = 35\nvalue = [22, 13]\nclass = Unprivileged"] ;
606 -> 607 ;
608 [label="juv_other_count <= 2.5\ngini = 0.437\nsamples = 31\nvalue = [21, 10]\nclass = Unprivileged"] ;
607 -> 608 ;
609 [label="c_charge_desc=False Ownership Info/Pawn Item <= 0.5\ngini = 0.42\nsamples = 30\nvalue = [21, 9]\nclass = Unprivileged"] ;
608 -> 609 ;
610 [label="juv_fel_count <= 0.5\ngini = 0.4\nsamples = 29\nvalue = [21, 8]\nclass = Unprivileged"] ;
609 -> 610 ;
611 [label="age <= 21.5\ngini = 0.375\nsamples = 28\nvalue = [21, 7]\nclass = Unprivileged"] ;
610 -> 611 ;
612 [label="c_charge_desc=Possession of Cannabis <= 0.5\ngini = 0.18\nsamples = 10\nvalue = [9, 1]\nclass = Unprivileged"] ;
611 -> 612 ;
613 [label="gini = 0.0\nsamples = 8\nvalue = [8, 0]\nclass = Unprivileged"] ;
612 -> 613 ;
614 [label="gini = 0.5\nsamples = 2\nvalue = [1, 1]\nclass = Unprivileged"] ;
612 -> 614 ;
615 [label="gini = 0.444\nsamples = 18\nvalue = [12, 6]\nclass = Unprivileged"] ;
611 -> 615 ;
630 [label="gini = 0.0\nsamples = 1\nvalue = [0, 1]\nclass = Privileged"] ;
610 -> 630 ;
631 [label="gini = 0.0\nsamples = 1\nvalue = [0, 1]\nclass = Privileged"] ;
609 -> 631 ;
632 [label="gini = 0.0\nsamples = 1\nvalue = [0, 1]\nclass = Privileged"] ;
608 -> 632 ;
633 [label="juv_misd_count <= 0.5\ngini = 0.375\nsamples = 4\nvalue = [1, 3]\nclass = Privileged"] ;
607 -> 633 ;
634 [label="gini = 0.0\nsamples = 3\nvalue = [0, 3]\nclass = Privileged"] ;
633 -> 634 ;
635 [label="gini = 0.0\nsamples = 1\nvalue = [1, 0]\nclass = Unprivileged"] ;
633 -> 635 ;
636 [label="gini = 0.0\nsamples = 8\nvalue = [8, 0]\nclass = Unprivileged"] ;
606 -> 636 ;
637 [label="c_charge_desc=Pos Cannabis W/Intent Sel/Del <= 0.5\ngini = 0.474\nsamples = 127\nvalue = [78, 49]\nclass = Unprivileged"] ;
479 -> 637 ;
638 [label="c_charge_desc=Battery <= 0.5\ngini = 0.466\nsamples = 122\nvalue = [77, 45]\nclass = Unprivileged"] ;
637 -> 638 ;
639 [label="c_charge_desc=Possession of Cocaine <= 0.5\ngini = 0.437\nsamples = 96\nvalue = [65, 31]\nclass = Unprivileged"] ;
638 -> 639 ;
640 [label="c_charge_desc=Poss Cocaine/Intent To Del/Sel <= 0.5\ngini = 0.423\nsamples = 89\nvalue = [62, 27]\nclass = Unprivileged"] ;
639 -> 640 ;
641 [label="c_charge_desc=DUI Level 0.15 Or Minor In Veh <= 0.5\ngini = 0.416\nsamples = 88\nvalue = [62, 26]\nclass = Unprivileged"] ;
640 -> 641 ;
642 [label="race <= 0.5\ngini = 0.41\nsamples = 87\nvalue = [62, 25]\nclass = Unprivileged"] ;
641 -> 642 ;
643 [label="c_charge_degree=F <= 0.5\ngini = 0.367\nsamples = 66\nvalue = [50, 16]\nclass = Unprivileged"] ;
642 -> 643 ;
644 [label="gini = 0.0\nsamples = 11\nvalue = [11, 0]\nclass = Unprivileged"] ;
643 -> 644 ;
645 [label="c_charge_desc=Fleeing or Eluding a LEO <= 0.5\ngini = 0.413\nsamples = 55\nvalue = [39, 16]\nclass = Unprivileged"] ;
643 -> 645 ;
646 [label="c_charge_desc=Possession of Hydrocodone <= 0.5\ngini = 0.401\nsamples = 54\nvalue = [39, 15]\nclass = Unprivileged"] ;
645 -> 646 ;
647 [label="juv_fel_count <= 0.5\ngini = 0.389\nsamples = 53\nvalue = [39, 14]\nclass = Unprivileged"] ;
646 -> 647 ;
648 [label="c_charge_desc=Burglary Structure Unoccup <= 0.5\ngini = 0.375\nsamples = 52\nvalue = [39, 13]\nclass = Unprivileged"] ;
647 -> 648 ;
649 [label="c_charge_desc=Possession of Cannabis <= 0.5\ngini = 0.36\nsamples = 51\nvalue = [39, 12]\nclass = Unprivileged"] ;
648 -> 649 ;
650 [label="c_charge_desc=Felony Driving While Lic Suspd <= 0.5\ngini = 0.343\nsamples = 50\nvalue = [39, 11]\nclass = Unprivileged"] ;
649 -> 650 ;
651 [label="c_charge_desc=arrest case no charge <= 0.5\ngini = 0.31\nsamples = 47\nvalue = [38, 9]\nclass = Unprivileged"] ;
650 -> 651 ;
652 [label="c_charge_desc=Grand Theft in the 3rd Degree <= 0.5\ngini = 0.219\nsamples = 32\nvalue = [28, 4]\nclass = Unprivileged"] ;
651 -> 652 ;
653 [label="c_charge_desc=Possession Burglary Tools <= 0.5\ngini = 0.137\nsamples = 27\nvalue = [25, 2]\nclass = Unprivileged"] ;
652 -> 653 ;
654 [label="c_charge_desc=Fraudulent Use of Credit Card <= 0.5\ngini = 0.077\nsamples = 25\nvalue = [24, 1]\nclass = Unprivileged"] ;
653 -> 654 ;
655 [label="gini = 0.0\nsamples = 23\nvalue = [23, 0]\nclass = Unprivileged"] ;
654 -> 655 ;
656 [label="age <= 26.0\ngini = 0.5\nsamples = 2\nvalue = [1, 1]\nclass = Unprivileged"] ;
654 -> 656 ;
657 [label="gini = 0.0\nsamples = 1\nvalue = [1, 0]\nclass = Unprivileged"] ;
656 -> 657 ;
658 [label="gini = 0.0\nsamples = 1\nvalue = [0, 1]\nclass = Privileged"] ;
656 -> 658 ;
659 [label="age <= 27.5\ngini = 0.5\nsamples = 2\nvalue = [1, 1]\nclass = Unprivileged"] ;
653 -> 659 ;
660 [label="gini = 0.0\nsamples = 1\nvalue = [0, 1]\nclass = Privileged"] ;
659 -> 660 ;
661 [label="gini = 0.0\nsamples = 1\nvalue = [1, 0]\nclass = Unprivileged"] ;
659 -> 661 ;
662 [label="age <= 27.5\ngini = 0.48\nsamples = 5\nvalue = [3, 2]\nclass = Unprivileged"] ;
652 -> 662 ;
663 [label="age <= 26.0\ngini = 0.375\nsamples = 4\nvalue = [3, 1]\nclass = Unprivileged"] ;
662 -> 663 ;
664 [label="sex <= 0.5\ngini = 0.5\nsamples = 2\nvalue = [1, 1]\nclass = Unprivileged"] ;
663 -> 664 ;
665 [label="gini = 0.0\nsamples = 1\nvalue = [0, 1]\nclass = Privileged"] ;
664 -> 665 ;
666 [label="gini = 0.0\nsamples = 1\nvalue = [1, 0]\nclass = Unprivileged"] ;
664 -> 666 ;
667 [label="gini = 0.0\nsamples = 2\nvalue = [2, 0]\nclass = Unprivileged"] ;
663 -> 667 ;
668 [label="gini = 0.0\nsamples = 1\nvalue = [0, 1]\nclass = Privileged"] ;
662 -> 668 ;
669 [label="sex <= 0.5\ngini = 0.444\nsamples = 15\nvalue = [10, 5]\nclass = Unprivileged"] ;
651 -> 669 ;
670 [label="age <= 26.5\ngini = 0.473\nsamples = 13\nvalue = [8, 5]\nclass = Unprivileged"] ;
669 -> 670 ;
671 [label="age <= 25.5\ngini = 0.5\nsamples = 8\nvalue = [4, 4]\nclass = Unprivileged"] ;
670 -> 671 ;
672 [label="gini = 0.444\nsamples = 3\nvalue = [2, 1]\nclass = Unprivileged"] ;
671 -> 672 ;
673 [label="gini = 0.48\nsamples = 5\nvalue = [2, 3]\nclass = Privileged"] ;
671 -> 673 ;
674 [label="age <= 27.5\ngini = 0.32\nsamples = 5\nvalue = [4, 1]\nclass = Unprivileged"] ;
670 -> 674 ;
675 [label="gini = 0.0\nsamples = 2\nvalue = [2, 0]\nclass = Unprivileged"] ;
674 -> 675 ;
676 [label="gini = 0.444\nsamples = 3\nvalue = [2, 1]\nclass = Unprivileged"] ;
674 -> 676 ;
677 [label="gini = 0.0\nsamples = 2\nvalue = [2, 0]\nclass = Unprivileged"] ;
669 -> 677 ;
678 [label="age <= 26.5\ngini = 0.444\nsamples = 3\nvalue = [1, 2]\nclass = Privileged"] ;
650 -> 678 ;
679 [label="gini = 0.0\nsamples = 1\nvalue = [1, 0]\nclass = Unprivileged"] ;
678 -> 679 ;
680 [label="gini = 0.0\nsamples = 2\nvalue = [0, 2]\nclass = Privileged"] ;
678 -> 680 ;
681 [label="gini = 0.0\nsamples = 1\nvalue = [0, 1]\nclass = Privileged"] ;
649 -> 681 ;
682 [label="gini = 0.0\nsamples = 1\nvalue = [0, 1]\nclass = Privileged"] ;
648 -> 682 ;
683 [label="gini = 0.0\nsamples = 1\nvalue = [0, 1]\nclass = Privileged"] ;
647 -> 683 ;
684 [label="gini = 0.0\nsamples = 1\nvalue = [0, 1]\nclass = Privileged"] ;
646 -> 684 ;
685 [label="gini = 0.0\nsamples = 1\nvalue = [0, 1]\nclass = Privileged"] ;
645 -> 685 ;
686 [label="c_charge_desc=Possess Cannabis/20 Grams Or Less <= 0.5\ngini = 0.49\nsamples = 21\nvalue = [12, 9]\nclass = Unprivileged"] ;
642 -> 686 ;
687 [label="c_charge_desc=False Ownership Info/Pawn Item <= 0.5\ngini = 0.465\nsamples = 19\nvalue = [12, 7]\nclass = Unprivileged"] ;
686 -> 687 ;
688 [label="c_charge_desc=Opert With Susp DL 2nd Offens <= 0.5\ngini = 0.444\nsamples = 18\nvalue = [12, 6]\nclass = Unprivileged"] ;
687 -> 688 ;
689 [label="c_charge_desc=Possession of Oxycodone <= 0.5\ngini = 0.415\nsamples = 17\nvalue = [12, 5]\nclass = Unprivileged"] ;
688 -> 689 ;
690 [label="c_charge_desc=Susp Drivers Lic 1st Offense <= 0.5\ngini = 0.375\nsamples = 16\nvalue = [12, 4]\nclass = Unprivileged"] ;
689 -> 690 ;
691 [label="c_charge_desc=arrest case no charge <= 0.5\ngini = 0.32\nsamples = 15\nvalue = [12, 3]\nclass = Unprivileged"] ;
690 -> 691 ;
692 [label="gini = 0.0\nsamples = 8\nvalue = [8, 0]\nclass = Unprivileged"] ;
691 -> 692 ;
693 [label="sex <= 0.5\ngini = 0.49\nsamples = 7\nvalue = [4, 3]\nclass = Unprivileged"] ;
691 -> 693 ;
694 [label="gini = 0.444\nsamples = 6\nvalue = [4, 2]\nclass = Unprivileged"] ;
693 -> 694 ;
699 [label="gini = 0.0\nsamples = 1\nvalue = [0, 1]\nclass = Privileged"] ;
693 -> 699 ;
700 [label="gini = 0.0\nsamples = 1\nvalue = [0, 1]\nclass = Privileged"] ;
690 -> 700 ;
701 [label="gini = 0.0\nsamples = 1\nvalue = [0, 1]\nclass = Privileged"] ;
689 -> 701 ;
702 [label="gini = 0.0\nsamples = 1\nvalue = [0, 1]\nclass = Privileged"] ;
688 -> 702 ;
703 [label="gini = 0.0\nsamples = 1\nvalue = [0, 1]\nclass = Privileged"] ;
687 -> 703 ;
704 [label="gini = 0.0\nsamples = 2\nvalue = [0, 2]\nclass = Privileged"] ;
686 -> 704 ;
705 [label="gini = 0.0\nsamples = 1\nvalue = [0, 1]\nclass = Privileged"] ;
641 -> 705 ;
706 [label="gini = 0.0\nsamples = 1\nvalue = [0, 1]\nclass = Privileged"] ;
640 -> 706 ;
707 [label="age <= 27.0\ngini = 0.49\nsamples = 7\nvalue = [3, 4]\nclass = Privileged"] ;
639 -> 707 ;
708 [label="race <= 0.5\ngini = 0.375\nsamples = 4\nvalue = [3, 1]\nclass = Unprivileged"] ;
707 -> 708 ;
709 [label="gini = 0.5\nsamples = 2\nvalue = [1, 1]\nclass = Unprivileged"] ;
708 -> 709 ;
710 [label="gini = 0.0\nsamples = 2\nvalue = [2, 0]\nclass = Unprivileged"] ;
708 -> 710 ;
711 [label="gini = 0.0\nsamples = 3\nvalue = [0, 3]\nclass = Privileged"] ;
707 -> 711 ;
712 [label="age <= 25.5\ngini = 0.497\nsamples = 26\nvalue = [12, 14]\nclass = Privileged"] ;
638 -> 712 ;
713 [label="sex <= 0.5\ngini = 0.32\nsamples = 10\nvalue = [2, 8]\nclass = Privileged"] ;
712 -> 713 ;
714 [label="race <= 0.5\ngini = 0.408\nsamples = 7\nvalue = [2, 5]\nclass = Privileged"] ;
713 -> 714 ;
715 [label="juv_misd_count <= 0.5\ngini = 0.32\nsamples = 5\nvalue = [1, 4]\nclass = Privileged"] ;
714 -> 715 ;
716 [label="gini = 0.375\nsamples = 4\nvalue = [1, 3]\nclass = Privileged"] ;
715 -> 716 ;
717 [label="gini = 0.0\nsamples = 1\nvalue = [0, 1]\nclass = Privileged"] ;
715 -> 717 ;
718 [label="gini = 0.5\nsamples = 2\nvalue = [1, 1]\nclass = Unprivileged"] ;
714 -> 718 ;
719 [label="gini = 0.0\nsamples = 3\nvalue = [0, 3]\nclass = Privileged"] ;
713 -> 719 ;
720 [label="juv_fel_count <= 0.5\ngini = 0.469\nsamples = 16\nvalue = [10, 6]\nclass = Unprivileged"] ;
712 -> 720 ;
721 [label="age <= 26.5\ngini = 0.444\nsamples = 15\nvalue = [10, 5]\nclass = Unprivileged"] ;
720 -> 721 ;
722 [label="sex <= 0.5\ngini = 0.5\nsamples = 6\nvalue = [3, 3]\nclass = Unprivileged"] ;
721 -> 722 ;
723 [label="race <= 0.5\ngini = 0.48\nsamples = 5\nvalue = [2, 3]\nclass = Privileged"] ;
722 -> 723 ;
724 [label="gini = 0.375\nsamples = 4\nvalue = [1, 3]\nclass = Privileged"] ;
723 -> 724 ;
725 [label="gini = 0.0\nsamples = 1\nvalue = [1, 0]\nclass = Unprivileged"] ;
723 -> 725 ;
726 [label="gini = 0.0\nsamples = 1\nvalue = [1, 0]\nclass = Unprivileged"] ;
722 -> 726 ;
727 [label="age <= 27.5\ngini = 0.346\nsamples = 9\nvalue = [7, 2]\nclass = Unprivileged"] ;
721 -> 727 ;
728 [label="gini = 0.0\nsamples = 3\nvalue = [3, 0]\nclass = Unprivileged"] ;
727 -> 728 ;
729 [label="sex <= 0.5\ngini = 0.444\nsamples = 6\nvalue = [4, 2]\nclass = Unprivileged"] ;
727 -> 729 ;
730 [label="race <= 0.5\ngini = 0.32\nsamples = 5\nvalue = [4, 1]\nclass = Unprivileged"] ;
729 -> 730 ;
731 [label="gini = 0.375\nsamples = 4\nvalue = [3, 1]\nclass = Unprivileged"] ;
730 -> 731 ;
732 [label="gini = 0.0\nsamples = 1\nvalue = [1, 0]\nclass = Unprivileged"] ;
730 -> 732 ;
733 [label="gini = 0.0\nsamples = 1\nvalue = [0, 1]\nclass = Privileged"] ;
729 -> 733 ;
734 [label="gini = 0.0\nsamples = 1\nvalue = [0, 1]\nclass = Privileged"] ;
720 -> 734 ;
735 [label="race <= 0.5\ngini = 0.32\nsamples = 5\nvalue = [1, 4]\nclass = Privileged"] ;
637 -> 735 ;
736 [label="gini = 0.0\nsamples = 4\nvalue = [0, 4]\nclass = Privileged"] ;
735 -> 736 ;
737 [label="gini = 0.0\nsamples = 1\nvalue = [1, 0]\nclass = Unprivileged"] ;
735 -> 737 ;
738 [label="c_charge_desc=Possession of Cannabis <= 0.5\ngini = 0.475\nsamples = 196\nvalue = [76, 120]\nclass = Privileged"] ;
478 -> 738 ;
739 [label="c_charge_desc=Possess Cannabis/20 Grams Or Less <= 0.5\ngini = 0.469\nsamples = 192\nvalue = [72, 120]\nclass = Privileged"] ;
738 -> 739 ;
740 [label="c_charge_desc=Aggrav Battery w/Deadly Weapon <= 0.5\ngini = 0.462\nsamples = 185\nvalue = [67, 118]\nclass = Privileged"] ;
739 -> 740 ;
741 [label="c_charge_desc=Possession Burglary Tools <= 0.5\ngini = 0.458\nsamples = 183\nvalue = [65.0, 118.0]\nclass = Privileged"] ;
740 -> 741 ;
742 [label="c_charge_desc=Lewd/Lasc Battery Pers 12+/<16 <= 0.5\ngini = 0.454\nsamples = 181\nvalue = [63, 118]\nclass = Privileged"] ;
741 -> 742 ;
743 [label="c_charge_desc=Tampering With Physical Evidence <= 0.5\ngini = 0.449\nsamples = 179\nvalue = [61.0, 118.0]\nclass = Privileged"] ;
742 -> 743 ;
744 [label="c_charge_desc=Opert With Susp DL 2nd Offens <= 0.5\ngini = 0.454\nsamples = 175\nvalue = [61, 114]\nclass = Privileged"] ;
743 -> 744 ;
745 [label="c_charge_desc=Felony Battery (Dom Strang) <= 0.5\ngini = 0.452\nsamples = 174\nvalue = [60.0, 114.0]\nclass = Privileged"] ;
744 -> 745 ;
746 [label="c_charge_desc=Exposes Culpable Negligence <= 0.5\ngini = 0.449\nsamples = 173\nvalue = [59, 114]\nclass = Privileged"] ;
745 -> 746 ;
747 [label="c_charge_desc=Deliver 3,4 Methylenediox <= 0.5\ngini = 0.447\nsamples = 172\nvalue = [58.0, 114.0]\nclass = Privileged"] ;
746 -> 747 ;
748 [label="c_charge_desc=Burglary Conveyance Armed <= 0.5\ngini = 0.444\nsamples = 171\nvalue = [57, 114]\nclass = Privileged"] ;
747 -> 748 ;
749 [label="c_charge_desc=Poss of Firearm by Convic Felo <= 0.5\ngini = 0.442\nsamples = 170\nvalue = [56.0, 114.0]\nclass = Privileged"] ;
748 -> 749 ;
750 [label="c_charge_desc=Agg Battery Grt/Bod/Harm <= 0.5\ngini = 0.439\nsamples = 169\nvalue = [55, 114]\nclass = Privileged"] ;
749 -> 750 ;
751 [label="c_charge_desc=Resist/Obstruct W/O Violence <= 0.5\ngini = 0.436\nsamples = 168\nvalue = [54.0, 114.0]\nclass = Privileged"] ;
750 -> 751 ;
752 [label="juv_fel_count <= 0.5\ngini = 0.433\nsamples = 167\nvalue = [53.0, 114.0]\nclass = Privileged"] ;
751 -> 752 ;
753 [label="c_charge_desc=Pos Cannabis W/Intent Sel/Del <= 0.5\ngini = 0.425\nsamples = 160\nvalue = [49, 111]\nclass = Privileged"] ;
752 -> 753 ;
754 [label="c_charge_desc=Sel/Pur/Mfr/Del Control Substa <= 0.5\ngini = 0.416\nsamples = 156\nvalue = [46.0, 110.0]\nclass = Privileged"] ;
753 -> 754 ;
755 [label="c_charge_desc=Deliver Cannabis <= 0.5\ngini = 0.412\nsamples = 155\nvalue = [45, 110]\nclass = Privileged"] ;
754 -> 755 ;
756 [label="age <= 21.5\ngini = 0.408\nsamples = 154\nvalue = [44, 110]\nclass = Privileged"] ;
755 -> 756 ;
757 [label="sex <= 0.5\ngini = 0.153\nsamples = 12\nvalue = [1, 11]\nclass = Privileged"] ;
756 -> 757 ;
758 [label="gini = 0.0\nsamples = 11\nvalue = [0, 11]\nclass = Privileged"] ;
757 -> 758 ;
759 [label="gini = 0.0\nsamples = 1\nvalue = [1, 0]\nclass = Unprivileged"] ;
757 -> 759 ;
760 [label="c_charge_desc=Robbery / Weapon <= 0.5\ngini = 0.422\nsamples = 142\nvalue = [43, 99]\nclass = Privileged"] ;
756 -> 760 ;
761 [label="c_charge_desc=D.U.I. Serious Bodily Injury <= 0.5\ngini = 0.418\nsamples = 141\nvalue = [42, 99]\nclass = Privileged"] ;
760 -> 761 ;
762 [label="c_charge_desc=Sale/Del Cannabis At/Near Scho <= 0.5\ngini = 0.414\nsamples = 140\nvalue = [41, 99]\nclass = Privileged"] ;
761 -> 762 ;
763 [label="c_charge_desc=Tresspass in Structure or Conveyance <= 0.5\ngini = 0.41\nsamples = 139\nvalue = [40, 99]\nclass = Privileged"] ;
762 -> 763 ;
764 [label="c_charge_desc=Robbery Sudd Snatch No Weapon <= 0.5\ngini = 0.405\nsamples = 138\nvalue = [39, 99]\nclass = Privileged"] ;
763 -> 764 ;
765 [label="c_charge_desc=Unlaw LicTag/Sticker Attach <= 0.5\ngini = 0.401\nsamples = 137\nvalue = [38, 99]\nclass = Privileged"] ;
764 -> 765 ;
766 [label="c_charge_desc=Threat Public Servant <= 0.5\ngini = 0.396\nsamples = 136\nvalue = [37, 99]\nclass = Privileged"] ;
765 -> 766 ;
767 [label="c_charge_desc=Battery <= 0.5\ngini = 0.391\nsamples = 135\nvalue = [36, 99]\nclass = Privileged"] ;
766 -> 767 ;
768 [label="c_charge_desc=arrest case no charge <= 0.5\ngini = 0.361\nsamples = 110\nvalue = [26, 84]\nclass = Privileged"] ;
767 -> 768 ;
769 [label="c_charge_desc=Forging Bank Bills/Promis Note <= 0.5\ngini = 0.308\nsamples = 84\nvalue = [16, 68]\nclass = Privileged"] ;
768 -> 769 ;
770 [label="sex <= 0.5\ngini = 0.296\nsamples = 83\nvalue = [15, 68]\nclass = Privileged"] ;
769 -> 770 ;
771 [label="c_charge_desc=Poss3,4 Methylenedioxymethcath <= 0.5\ngini = 0.359\nsamples = 64\nvalue = [15, 49]\nclass = Privileged"] ;
770 -> 771 ;
772 [label="c_charge_desc=Disorderly Conduct <= 0.5\ngini = 0.346\nsamples = 63\nvalue = [14, 49]\nclass = Privileged"] ;
771 -> 772 ;
773 [label="c_charge_desc=Burglary Unoccupied Dwelling <= 0.5\ngini = 0.331\nsamples = 62\nvalue = [13, 49]\nclass = Privileged"] ;
772 -> 773 ;
774 [label="c_charge_desc=Aggravated Assault W/Dead Weap <= 0.5\ngini = 0.316\nsamples = 61\nvalue = [12, 49]\nclass = Privileged"] ;
773 -> 774 ;
775 [label="c_charge_desc=Aggravated Battery <= 0.5\ngini = 0.299\nsamples = 60\nvalue = [11, 49]\nclass = Privileged"] ;
774 -> 775 ;
776 [label="c_charge_desc=Grand Theft in the 3rd Degree <= 0.5\ngini = 0.282\nsamples = 59\nvalue = [10, 49]\nclass = Privileged"] ;
775 -> 776 ;
777 [label="c_charge_desc=Possession Of Methamphetamine <= 0.5\ngini = 0.229\nsamples = 53\nvalue = [7, 46]\nclass = Privileged"] ;
776 -> 777 ;
778 [label="c_charge_desc=Possession of Cocaine <= 0.5\ngini = 0.204\nsamples = 52\nvalue = [6, 46]\nclass = Privileged"] ;
777 -> 778 ;
779 [label="c_charge_desc=Driving Under The Influence <= 0.5\ngini = 0.156\nsamples = 47\nvalue = [4, 43]\nclass = Privileged"] ;
778 -> 779 ;
780 [label="c_charge_desc=Crim Use of Personal ID Info <= 0.5\ngini = 0.124\nsamples = 45\nvalue = [3, 42]\nclass = Privileged"] ;
779 -> 780 ;
781 [label="c_charge_desc=Driving While License Revoked <= 0.5\ngini = 0.089\nsamples = 43\nvalue = [2, 41]\nclass = Privileged"] ;
780 -> 781 ;
782 [label="c_charge_desc=Carrying Concealed Firearm <= 0.5\ngini = 0.048\nsamples = 41\nvalue = [1, 40]\nclass = Privileged"] ;
781 -> 782 ;
783 [label="gini = 0.0\nsamples = 37\nvalue = [0, 37]\nclass = Privileged"] ;
782 -> 783 ;
784 [label="age <= 25.5\ngini = 0.375\nsamples = 4\nvalue = [1, 3]\nclass = Privileged"] ;
782 -> 784 ;
785 [label="gini = 0.0\nsamples = 3\nvalue = [0, 3]\nclass = Privileged"] ;
784 -> 785 ;
786 [label="gini = 0.0\nsamples = 1\nvalue = [1, 0]\nclass = Unprivileged"] ;
784 -> 786 ;
787 [label="age <= 23.0\ngini = 0.5\nsamples = 2\nvalue = [1, 1]\nclass = Unprivileged"] ;
781 -> 787 ;
788 [label="gini = 0.0\nsamples = 1\nvalue = [1, 0]\nclass = Unprivileged"] ;
787 -> 788 ;
789 [label="gini = 0.0\nsamples = 1\nvalue = [0, 1]\nclass = Privileged"] ;
787 -> 789 ;
790 [label="age <= 23.0\ngini = 0.5\nsamples = 2\nvalue = [1, 1]\nclass = Unprivileged"] ;
780 -> 790 ;
791 [label="gini = 0.0\nsamples = 1\nvalue = [0, 1]\nclass = Privileged"] ;
790 -> 791 ;
792 [label="gini = 0.0\nsamples = 1\nvalue = [1, 0]\nclass = Unprivileged"] ;
790 -> 792 ;
793 [label="gini = 0.5\nsamples = 2\nvalue = [1, 1]\nclass = Unprivileged"] ;
779 -> 793 ;
794 [label="age <= 26.0\ngini = 0.48\nsamples = 5\nvalue = [2, 3]\nclass = Privileged"] ;
778 -> 794 ;
795 [label="gini = 0.0\nsamples = 2\nvalue = [0, 2]\nclass = Privileged"] ;
794 -> 795 ;
796 [label="race <= 0.5\ngini = 0.444\nsamples = 3\nvalue = [2, 1]\nclass = Unprivileged"] ;
794 -> 796 ;
797 [label="gini = 0.0\nsamples = 1\nvalue = [0, 1]\nclass = Privileged"] ;
796 -> 797 ;
798 [label="gini = 0.0\nsamples = 2\nvalue = [2, 0]\nclass = Unprivileged"] ;
796 -> 798 ;
799 [label="gini = 0.0\nsamples = 1\nvalue = [1, 0]\nclass = Unprivileged"] ;
777 -> 799 ;
800 [label="juv_other_count <= 0.5\ngini = 0.5\nsamples = 6\nvalue = [3, 3]\nclass = Unprivileged"] ;
776 -> 800 ;
801 [label="age <= 27.0\ngini = 0.48\nsamples = 5\nvalue = [2, 3]\nclass = Privileged"] ;
800 -> 801 ;
802 [label="juv_misd_count <= 0.5\ngini = 0.375\nsamples = 4\nvalue = [1, 3]\nclass = Privileged"] ;
801 -> 802 ;
803 [label="gini = 0.0\nsamples = 3\nvalue = [0, 3]\nclass = Privileged"] ;
802 -> 803 ;
804 [label="gini = 0.0\nsamples = 1\nvalue = [1, 0]\nclass = Unprivileged"] ;
802 -> 804 ;
805 [label="gini = 0.0\nsamples = 1\nvalue = [1, 0]\nclass = Unprivileged"] ;
801 -> 805 ;
806 [label="gini = 0.0\nsamples = 1\nvalue = [1, 0]\nclass = Unprivileged"] ;
800 -> 806 ;
807 [label="gini = 0.0\nsamples = 1\nvalue = [1, 0]\nclass = Unprivileged"] ;
775 -> 807 ;
808 [label="gini = 0.0\nsamples = 1\nvalue = [1, 0]\nclass = Unprivileged"] ;
774 -> 808 ;
809 [label="gini = 0.0\nsamples = 1\nvalue = [1, 0]\nclass = Unprivileged"] ;
773 -> 809 ;
810 [label="gini = 0.0\nsamples = 1\nvalue = [1, 0]\nclass = Unprivileged"] ;
772 -> 810 ;
811 [label="gini = 0.0\nsamples = 1\nvalue = [1, 0]\nclass = Unprivileged"] ;
771 -> 811 ;
812 [label="gini = 0.0\nsamples = 19\nvalue = [0, 19]\nclass = Privileged"] ;
770 -> 812 ;
813 [label="gini = 0.0\nsamples = 1\nvalue = [1, 0]\nclass = Unprivileged"] ;
769 -> 813 ;
814 [label="gini = 0.473\nsamples = 26\nvalue = [10, 16]\nclass = Privileged"] ;
768 -> 814 ;
841 [label="sex <= 0.5\ngini = 0.48\nsamples = 25\nvalue = [10, 15]\nclass = Privileged"] ;
767 -> 841 ;
842 [label="age <= 22.5\ngini = 0.42\nsamples = 20\nvalue = [6, 14]\nclass = Privileged"] ;
841 -> 842 ;
843 [label="gini = 0.0\nsamples = 2\nvalue = [0, 2]\nclass = Privileged"] ;
842 -> 843 ;
844 [label="race <= 0.5\ngini = 0.444\nsamples = 18\nvalue = [6, 12]\nclass = Privileged"] ;
842 -> 844 ;
845 [label="age <= 25.5\ngini = 0.408\nsamples = 14\nvalue = [4, 10]\nclass = Privileged"] ;
844 -> 845 ;
846 [label="age_cat=Less than 25 <= 0.5\ngini = 0.32\nsamples = 10\nvalue = [2, 8]\nclass = Privileged"] ;
845 -> 846 ;
847 [label="gini = 0.0\nsamples = 2\nvalue = [0, 2]\nclass = Privileged"] ;
846 -> 847 ;
848 [label="juv_other_count <= 0.5\ngini = 0.375\nsamples = 8\nvalue = [2, 6]\nclass = Privileged"] ;
846 -> 848 ;
849 [label="age <= 23.5\ngini = 0.444\nsamples = 6\nvalue = [2, 4]\nclass = Privileged"] ;
848 -> 849 ;
850 [label="gini = 0.5\nsamples = 2\nvalue = [1, 1]\nclass = Unprivileged"] ;
849 -> 850 ;
851 [label="gini = 0.375\nsamples = 4\nvalue = [1, 3]\nclass = Privileged"] ;
849 -> 851 ;
852 [label="gini = 0.0\nsamples = 2\nvalue = [0, 2]\nclass = Privileged"] ;
848 -> 852 ;
853 [label="age <= 26.5\ngini = 0.5\nsamples = 4\nvalue = [2, 2]\nclass = Unprivileged"] ;
845 -> 853 ;
854 [label="gini = 0.0\nsamples = 2\nvalue = [2, 0]\nclass = Unprivileged"] ;
853 -> 854 ;
855 [label="gini = 0.0\nsamples = 2\nvalue = [0, 2]\nclass = Privileged"] ;
853 -> 855 ;
856 [label="age_cat=Less than 25 <= 0.5\ngini = 0.5\nsamples = 4\nvalue = [2, 2]\nclass = Unprivileged"] ;
844 -> 856 ;
857 [label="juv_other_count <= 0.5\ngini = 0.444\nsamples = 3\nvalue = [1, 2]\nclass = Privileged"] ;
856 -> 857 ;
858 [label="gini = 0.5\nsamples = 2\nvalue = [1, 1]\nclass = Unprivileged"] ;
857 -> 858 ;
859 [label="gini = 0.0\nsamples = 1\nvalue = [0, 1]\nclass = Privileged"] ;
857 -> 859 ;
860 [label="gini = 0.0\nsamples = 1\nvalue = [1, 0]\nclass = Unprivileged"] ;
856 -> 860 ;
861 [label="age <= 22.5\ngini = 0.32\nsamples = 5\nvalue = [4, 1]\nclass = Unprivileged"] ;
841 -> 861 ;
862 [label="gini = 0.0\nsamples = 1\nvalue = [0, 1]\nclass = Privileged"] ;
861 -> 862 ;
863 [label="gini = 0.0\nsamples = 4\nvalue = [4, 0]\nclass = Unprivileged"] ;
861 -> 863 ;
864 [label="gini = 0.0\nsamples = 1\nvalue = [1, 0]\nclass = Unprivileged"] ;
766 -> 864 ;
865 [label="gini = 0.0\nsamples = 1\nvalue = [1, 0]\nclass = Unprivileged"] ;
765 -> 865 ;
866 [label="gini = 0.0\nsamples = 1\nvalue = [1, 0]\nclass = Unprivileged"] ;
764 -> 866 ;
867 [label="gini = 0.0\nsamples = 1\nvalue = [1, 0]\nclass = Unprivileged"] ;
763 -> 867 ;
868 [label="gini = 0.0\nsamples = 1\nvalue = [1, 0]\nclass = Unprivileged"] ;
762 -> 868 ;
869 [label="gini = 0.0\nsamples = 1\nvalue = [1, 0]\nclass = Unprivileged"] ;
761 -> 869 ;
870 [label="gini = 0.0\nsamples = 1\nvalue = [1, 0]\nclass = Unprivileged"] ;
760 -> 870 ;
871 [label="gini = 0.0\nsamples = 1\nvalue = [1, 0]\nclass = Unprivileged"] ;
755 -> 871 ;
872 [label="gini = 0.0\nsamples = 1\nvalue = [1, 0]\nclass = Unprivileged"] ;
754 -> 872 ;
873 [label="age <= 24.0\ngini = 0.375\nsamples = 4\nvalue = [3, 1]\nclass = Unprivileged"] ;
753 -> 873 ;
874 [label="gini = 0.0\nsamples = 1\nvalue = [0, 1]\nclass = Privileged"] ;
873 -> 874 ;
875 [label="gini = 0.0\nsamples = 3\nvalue = [3, 0]\nclass = Unprivileged"] ;
873 -> 875 ;
876 [label="c_charge_desc=arrest case no charge <= 0.5\ngini = 0.49\nsamples = 7\nvalue = [4, 3]\nclass = Unprivileged"] ;
752 -> 876 ;
877 [label="juv_other_count <= 1.5\ngini = 0.48\nsamples = 5\nvalue = [2, 3]\nclass = Privileged"] ;
876 -> 877 ;
878 [label="c_charge_desc=Possession of Cocaine <= 0.5\ngini = 0.375\nsamples = 4\nvalue = [1, 3]\nclass = Privileged"] ;
877 -> 878 ;
879 [label="gini = 0.0\nsamples = 3\nvalue = [0, 3]\nclass = Privileged"] ;
878 -> 879 ;
880 [label="gini = 0.0\nsamples = 1\nvalue = [1, 0]\nclass = Unprivileged"] ;
878 -> 880 ;
881 [label="gini = 0.0\nsamples = 1\nvalue = [1, 0]\nclass = Unprivileged"] ;
877 -> 881 ;
882 [label="gini = 0.0\nsamples = 2\nvalue = [2, 0]\nclass = Unprivileged"] ;
876 -> 882 ;
883 [label="gini = 0.0\nsamples = 1\nvalue = [1, 0]\nclass = Unprivileged"] ;
751 -> 883 ;
884 [label="gini = 0.0\nsamples = 1\nvalue = [1, 0]\nclass = Unprivileged"] ;
750 -> 884 ;
885 [label="gini = 0.0\nsamples = 1\nvalue = [1, 0]\nclass = Unprivileged"] ;
749 -> 885 ;
886 [label="gini = 0.0\nsamples = 1\nvalue = [1, 0]\nclass = Unprivileged"] ;
748 -> 886 ;
887 [label="gini = 0.0\nsamples = 1\nvalue = [1, 0]\nclass = Unprivileged"] ;
747 -> 887 ;
888 [label="gini = 0.0\nsamples = 1\nvalue = [1, 0]\nclass = Unprivileged"] ;
746 -> 888 ;
889 [label="gini = 0.0\nsamples = 1\nvalue = [1, 0]\nclass = Unprivileged"] ;
745 -> 889 ;
890 [label="gini = 0.0\nsamples = 1\nvalue = [1, 0]\nclass = Unprivileged"] ;
744 -> 890 ;
891 [label="gini = 0.0\nsamples = 4\nvalue = [0, 4]\nclass = Privileged"] ;
743 -> 891 ;
892 [label="gini = 0.0\nsamples = 2\nvalue = [2, 0]\nclass = Unprivileged"] ;
742 -> 892 ;
893 [label="gini = 0.0\nsamples = 2\nvalue = [2, 0]\nclass = Unprivileged"] ;
741 -> 893 ;
894 [label="gini = 0.0\nsamples = 2\nvalue = [2, 0]\nclass = Unprivileged"] ;
740 -> 894 ;
895 [label="age_cat=25 - 45 <= 0.5\ngini = 0.408\nsamples = 7\nvalue = [5, 2]\nclass = Unprivileged"] ;
739 -> 895 ;
896 [label="age <= 22.5\ngini = 0.5\nsamples = 2\nvalue = [1, 1]\nclass = Unprivileged"] ;
895 -> 896 ;
897 [label="gini = 0.0\nsamples = 1\nvalue = [1, 0]\nclass = Unprivileged"] ;
896 -> 897 ;
898 [label="gini = 0.0\nsamples = 1\nvalue = [0, 1]\nclass = Privileged"] ;
896 -> 898 ;
899 [label="age <= 27.5\ngini = 0.32\nsamples = 5\nvalue = [4, 1]\nclass = Unprivileged"] ;
895 -> 899 ;
900 [label="gini = 0.0\nsamples = 3\nvalue = [3, 0]\nclass = Unprivileged"] ;
899 -> 900 ;
901 [label="gini = 0.5\nsamples = 2\nvalue = [1, 1]\nclass = Unprivileged"] ;
899 -> 901 ;
902 [label="gini = 0.0\nsamples = 4\nvalue = [4, 0]\nclass = Unprivileged"] ;
738 -> 902 ;
903 [label="age <= 52.5\ngini = 0.375\nsamples = 1548\nvalue = [1161, 387]\nclass = Unprivileged"] ;
1 -> 903 ;
904 [label="priors_count <= 0.5\ngini = 0.398\nsamples = 1256\nvalue = [911, 345]\nclass = Unprivileged"] ;
903 -> 904 ;
905 [label="c_charge_desc=Petit Theft <= 0.5\ngini = 0.358\nsamples = 671\nvalue = [514, 157]\nclass = Unprivileged"] ;
904 -> 905 ;
906 [label="c_charge_degree=F <= 0.5\ngini = 0.355\nsamples = 668\nvalue = [514, 154]\nclass = Unprivileged"] ;
905 -> 906 ;
907 [label="c_charge_desc=Possess Cannabis/20 Grams Or Less <= 0.5\ngini = 0.293\nsamples = 325\nvalue = [267.0, 58.0]\nclass = Unprivileged"] ;
906 -> 907 ;
908 [label="c_charge_desc=Stalking <= 0.5\ngini = 0.287\nsamples = 322\nvalue = [266, 56]\nclass = Unprivileged"] ;
907 -> 908 ;
909 [label="c_charge_desc=Aggravated Battery <= 0.5\ngini = 0.284\nsamples = 321\nvalue = [266, 55]\nclass = Unprivileged"] ;
908 -> 909 ;
910 [label="c_charge_desc=Battery on a Person Over 65 <= 0.5\ngini = 0.281\nsamples = 320\nvalue = [266, 54]\nclass = Unprivileged"] ;
909 -> 910 ;
911 [label="c_charge_desc=Carrying A Concealed Weapon <= 0.5\ngini = 0.277\nsamples = 319\nvalue = [266, 53]\nclass = Unprivileged"] ;
910 -> 911 ;
912 [label="c_charge_desc=Battery <= 0.5\ngini = 0.274\nsamples = 318\nvalue = [266, 52]\nclass = Unprivileged"] ;
911 -> 912 ;
913 [label="age <= 35.5\ngini = 0.198\nsamples = 126\nvalue = [112, 14]\nclass = Unprivileged"] ;
912 -> 913 ;
914 [label="age <= 31.5\ngini = 0.359\nsamples = 47\nvalue = [36, 11]\nclass = Unprivileged"] ;
913 -> 914 ;
915 [label="c_charge_desc=Disorderly Conduct <= 0.5\ngini = 0.153\nsamples = 24\nvalue = [22, 2]\nclass = Unprivileged"] ;
914 -> 915 ;
916 [label="c_charge_desc=DUI Property Damage/Injury <= 0.5\ngini = 0.087\nsamples = 22\nvalue = [21, 1]\nclass = Unprivileged"] ;
915 -> 916 ;
917 [label="gini = 0.0\nsamples = 13\nvalue = [13, 0]\nclass = Unprivileged"] ;
916 -> 917 ;
918 [label="race <= 0.5\ngini = 0.198\nsamples = 9\nvalue = [8, 1]\nclass = Unprivileged"] ;
916 -> 918 ;
919 [label="gini = 0.0\nsamples = 3\nvalue = [3, 0]\nclass = Unprivileged"] ;
918 -> 919 ;
920 [label="age <= 29.5\ngini = 0.278\nsamples = 6\nvalue = [5, 1]\nclass = Unprivileged"] ;
918 -> 920 ;
921 [label="gini = 0.0\nsamples = 2\nvalue = [2, 0]\nclass = Unprivileged"] ;
920 -> 921 ;
922 [label="gini = 0.375\nsamples = 4\nvalue = [3, 1]\nclass = Unprivileged"] ;
920 -> 922 ;
923 [label="sex <= 0.5\ngini = 0.5\nsamples = 2\nvalue = [1, 1]\nclass = Unprivileged"] ;
915 -> 923 ;
924 [label="gini = 0.0\nsamples = 1\nvalue = [0, 1]\nclass = Privileged"] ;
923 -> 924 ;
925 [label="gini = 0.0\nsamples = 1\nvalue = [1, 0]\nclass = Unprivileged"] ;
923 -> 925 ;
926 [label="gini = 0.476\nsamples = 23\nvalue = [14, 9]\nclass = Unprivileged"] ;
914 -> 926 ;
941 [label="c_charge_desc=Leave Acc/Attend Veh/More $50 <= 0.5\ngini = 0.073\nsamples = 79\nvalue = [76, 3]\nclass = Unprivileged"] ;
913 -> 941 ;
942 [label="c_charge_desc=Prostitution/Lewd Act Assignation <= 0.5\ngini = 0.051\nsamples = 77\nvalue = [75, 2]\nclass = Unprivileged"] ;
941 -> 942 ;
943 [label="c_charge_desc=Lve/Scen/Acc/Veh/Prop/Damage <= 0.5\ngini = 0.026\nsamples = 75\nvalue = [74, 1]\nclass = Unprivileged"] ;
942 -> 943 ;
944 [label="gini = 0.0\nsamples = 72\nvalue = [72, 0]\nclass = Unprivileged"] ;
943 -> 944 ;
945 [label="sex <= 0.5\ngini = 0.444\nsamples = 3\nvalue = [2, 1]\nclass = Unprivileged"] ;
943 -> 945 ;
946 [label="gini = 0.0\nsamples = 1\nvalue = [1, 0]\nclass = Unprivileged"] ;
945 -> 946 ;
947 [label="age <= 38.0\ngini = 0.5\nsamples = 2\nvalue = [1, 1]\nclass = Unprivileged"] ;
945 -> 947 ;
948 [label="gini = 0.0\nsamples = 1\nvalue = [1, 0]\nclass = Unprivileged"] ;
947 -> 948 ;
949 [label="gini = 0.0\nsamples = 1\nvalue = [0, 1]\nclass = Privileged"] ;
947 -> 949 ;
950 [label="age_cat=25 - 45 <= 0.5\ngini = 0.5\nsamples = 2\nvalue = [1, 1]\nclass = Unprivileged"] ;
942 -> 950 ;
951 [label="gini = 0.0\nsamples = 1\nvalue = [0, 1]\nclass = Privileged"] ;
950 -> 951 ;
952 [label="gini = 0.0\nsamples = 1\nvalue = [1, 0]\nclass = Unprivileged"] ;
950 -> 952 ;
953 [label="age <= 49.0\ngini = 0.5\nsamples = 2\nvalue = [1, 1]\nclass = Unprivileged"] ;
941 -> 953 ;
954 [label="gini = 0.0\nsamples = 1\nvalue = [1, 0]\nclass = Unprivileged"] ;
953 -> 954 ;
955 [label="gini = 0.0\nsamples = 1\nvalue = [0, 1]\nclass = Privileged"] ;
953 -> 955 ;
956 [label="age <= 34.5\ngini = 0.317\nsamples = 192\nvalue = [154, 38]\nclass = Unprivileged"] ;
912 -> 956 ;
957 [label="sex <= 0.5\ngini = 0.256\nsamples = 73\nvalue = [62, 11]\nclass = Unprivileged"] ;
956 -> 957 ;
958 [label="age <= 29.5\ngini = 0.194\nsamples = 46\nvalue = [41, 5]\nclass = Unprivileged"] ;
957 -> 958 ;
959 [label="race <= 0.5\ngini = 0.375\nsamples = 12\nvalue = [9, 3]\nclass = Unprivileged"] ;
958 -> 959 ;
960 [label="gini = 0.245\nsamples = 7\nvalue = [6, 1]\nclass = Unprivileged"] ;
959 -> 960 ;
961 [label="gini = 0.48\nsamples = 5\nvalue = [3, 2]\nclass = Unprivileged"] ;
959 -> 961 ;
962 [label="age <= 33.5\ngini = 0.111\nsamples = 34\nvalue = [32, 2]\nclass = Unprivileged"] ;
958 -> 962 ;
963 [label="race <= 0.5\ngini = 0.067\nsamples = 29\nvalue = [28, 1]\nclass = Unprivileged"] ;
962 -> 963 ;
964 [label="gini = 0.0\nsamples = 23\nvalue = [23, 0]\nclass = Unprivileged"] ;
963 -> 964 ;
965 [label="age <= 30.5\ngini = 0.278\nsamples = 6\nvalue = [5, 1]\nclass = Unprivileged"] ;
963 -> 965 ;
966 [label="gini = 0.0\nsamples = 2\nvalue = [2, 0]\nclass = Unprivileged"] ;
965 -> 966 ;
967 [label="age <= 31.5\ngini = 0.375\nsamples = 4\nvalue = [3, 1]\nclass = Unprivileged"] ;
965 -> 967 ;
968 [label="gini = 0.444\nsamples = 3\nvalue = [2, 1]\nclass = Unprivileged"] ;
967 -> 968 ;
969 [label="gini = 0.0\nsamples = 1\nvalue = [1, 0]\nclass = Unprivileged"] ;
967 -> 969 ;
970 [label="race <= 0.5\ngini = 0.32\nsamples = 5\nvalue = [4, 1]\nclass = Unprivileged"] ;
962 -> 970 ;
971 [label="gini = 0.5\nsamples = 2\nvalue = [1, 1]\nclass = Unprivileged"] ;
970 -> 971 ;
972 [label="gini = 0.0\nsamples = 3\nvalue = [3, 0]\nclass = Unprivileged"] ;
970 -> 972 ;
973 [label="race <= 0.5\ngini = 0.346\nsamples = 27\nvalue = [21, 6]\nclass = Unprivileged"] ;
957 -> 973 ;
974 [label="age <= 32.5\ngini = 0.432\nsamples = 19\nvalue = [13, 6]\nclass = Unprivileged"] ;
973 -> 974 ;
975 [label="age <= 31.5\ngini = 0.469\nsamples = 16\nvalue = [10, 6]\nclass = Unprivileged"] ;
974 -> 975 ;
976 [label="age <= 29.5\ngini = 0.375\nsamples = 12\nvalue = [9, 3]\nclass = Unprivileged"] ;
975 -> 976 ;
977 [label="gini = 0.0\nsamples = 1\nvalue = [1, 0]\nclass = Unprivileged"] ;
976 -> 977 ;
978 [label="age <= 30.5\ngini = 0.397\nsamples = 11\nvalue = [8, 3]\nclass = Unprivileged"] ;
976 -> 978 ;
979 [label="gini = 0.444\nsamples = 6\nvalue = [4, 2]\nclass = Unprivileged"] ;
978 -> 979 ;
980 [label="gini = 0.32\nsamples = 5\nvalue = [4, 1]\nclass = Unprivileged"] ;
978 -> 980 ;
981 [label="gini = 0.375\nsamples = 4\nvalue = [1, 3]\nclass = Privileged"] ;
975 -> 981 ;
982 [label="gini = 0.0\nsamples = 3\nvalue = [3, 0]\nclass = Unprivileged"] ;
974 -> 982 ;
983 [label="gini = 0.0\nsamples = 8\nvalue = [8, 0]\nclass = Unprivileged"] ;
973 -> 983 ;
984 [label="sex <= 0.5\ngini = 0.351\nsamples = 119\nvalue = [92, 27]\nclass = Unprivileged"] ;
956 -> 984 ;
985 [label="age <= 36.5\ngini = 0.41\nsamples = 80\nvalue = [57, 23]\nclass = Unprivileged"] ;
984 -> 985 ;
986 [label="race <= 0.5\ngini = 0.496\nsamples = 11\nvalue = [5, 6]\nclass = Privileged"] ;
985 -> 986 ;
987 [label="age <= 35.5\ngini = 0.5\nsamples = 8\nvalue = [4, 4]\nclass = Unprivileged"] ;
986 -> 987 ;
988 [label="gini = 0.5\nsamples = 4\nvalue = [2, 2]\nclass = Unprivileged"] ;
987 -> 988 ;
989 [label="gini = 0.5\nsamples = 4\nvalue = [2, 2]\nclass = Unprivileged"] ;
987 -> 989 ;
990 [label="age <= 35.5\ngini = 0.444\nsamples = 3\nvalue = [1, 2]\nclass = Privileged"] ;
986 -> 990 ;
991 [label="gini = 0.0\nsamples = 1\nvalue = [0, 1]\nclass = Privileged"] ;
990 -> 991 ;
992 [label="gini = 0.5\nsamples = 2\nvalue = [1, 1]\nclass = Unprivileged"] ;
990 -> 992 ;
993 [label="age <= 39.5\ngini = 0.371\nsamples = 69\nvalue = [52, 17]\nclass = Unprivileged"] ;
985 -> 993 ;
994 [label="age <= 38.5\ngini = 0.219\nsamples = 16\nvalue = [14, 2]\nclass = Unprivileged"] ;
993 -> 994 ;
995 [label="age <= 37.5\ngini = 0.298\nsamples = 11\nvalue = [9, 2]\nclass = Unprivileged"] ;
994 -> 995 ;
996 [label="race <= 0.5\ngini = 0.219\nsamples = 8\nvalue = [7, 1]\nclass = Unprivileged"] ;
995 -> 996 ;
997 [label="gini = 0.32\nsamples = 5\nvalue = [4, 1]\nclass = Unprivileged"] ;
996 -> 997 ;
998 [label="gini = 0.0\nsamples = 3\nvalue = [3, 0]\nclass = Unprivileged"] ;
996 -> 998 ;
999 [label="race <= 0.5\ngini = 0.444\nsamples = 3\nvalue = [2, 1]\nclass = Unprivileged"] ;
995 -> 999 ;
1000 [label="gini = 0.0\nsamples = 2\nvalue = [2, 0]\nclass = Unprivileged"] ;
999 -> 1000 ;
1001 [label="gini = 0.0\nsamples = 1\nvalue = [0, 1]\nclass = Privileged"] ;
999 -> 1001 ;
1002 [label="gini = 0.0\nsamples = 5\nvalue = [5, 0]\nclass = Unprivileged"] ;
994 -> 1002 ;
1003 [label="age_cat=Greater than 45 <= 0.5\ngini = 0.406\nsamples = 53\nvalue = [38, 15]\nclass = Unprivileged"] ;
993 -> 1003 ;
1004 [label="age <= 40.5\ngini = 0.463\nsamples = 22\nvalue = [14, 8]\nclass = Unprivileged"] ;
1003 -> 1004 ;
1005 [label="race <= 0.5\ngini = 0.5\nsamples = 4\nvalue = [2, 2]\nclass = Unprivileged"] ;
1004 -> 1005 ;
1006 [label="gini = 0.0\nsamples = 2\nvalue = [2, 0]\nclass = Unprivileged"] ;
1005 -> 1006 ;
1007 [label="gini = 0.0\nsamples = 2\nvalue = [0, 2]\nclass = Privileged"] ;
1005 -> 1007 ;
1008 [label="age <= 41.5\ngini = 0.444\nsamples = 18\nvalue = [12, 6]\nclass = Unprivileged"] ;
1004 -> 1008 ;
1009 [label="gini = 0.0\nsamples = 2\nvalue = [2, 0]\nclass = Unprivileged"] ;
1008 -> 1009 ;
1010 [label="race <= 0.5\ngini = 0.469\nsamples = 16\nvalue = [10, 6]\nclass = Unprivileged"] ;
1008 -> 1010 ;
1011 [label="age <= 43.5\ngini = 0.5\nsamples = 8\nvalue = [4, 4]\nclass = Unprivileged"] ;
1010 -> 1011 ;
1012 [label="age <= 42.5\ngini = 0.375\nsamples = 4\nvalue = [1, 3]\nclass = Privileged"] ;
1011 -> 1012 ;
1013 [label="gini = 0.0\nsamples = 1\nvalue = [0, 1]\nclass = Privileged"] ;
1012 -> 1013 ;
1014 [label="gini = 0.444\nsamples = 3\nvalue = [1, 2]\nclass = Privileged"] ;
1012 -> 1014 ;
1015 [label="gini = 0.375\nsamples = 4\nvalue = [3, 1]\nclass = Unprivileged"] ;
1011 -> 1015 ;
1016 [label="age <= 43.5\ngini = 0.375\nsamples = 8\nvalue = [6, 2]\nclass = Unprivileged"] ;
1010 -> 1016 ;
1017 [label="gini = 0.0\nsamples = 4\nvalue = [4, 0]\nclass = Unprivileged"] ;
1016 -> 1017 ;
1018 [label="gini = 0.5\nsamples = 4\nvalue = [2, 2]\nclass = Unprivileged"] ;
1016 -> 1018 ;
1019 [label="age <= 45.5\ngini = 0.35\nsamples = 31\nvalue = [24, 7]\nclass = Unprivileged"] ;
1003 -> 1019 ;
1020 [label="gini = 0.0\nsamples = 4\nvalue = [4, 0]\nclass = Unprivileged"] ;
1019 -> 1020 ;
1021 [label="age <= 51.5\ngini = 0.384\nsamples = 27\nvalue = [20, 7]\nclass = Unprivileged"] ;
1019 -> 1021 ;
1022 [label="age <= 50.5\ngini = 0.351\nsamples = 22\nvalue = [17, 5]\nclass = Unprivileged"] ;
1021 -> 1022 ;
1023 [label="age <= 48.5\ngini = 0.415\nsamples = 17\nvalue = [12, 5]\nclass = Unprivileged"] ;
1022 -> 1023 ;
1024 [label="age <= 47.5\ngini = 0.337\nsamples = 14\nvalue = [11, 3]\nclass = Unprivileged"] ;
1023 -> 1024 ;
1025 [label="race <= 0.5\ngini = 0.375\nsamples = 12\nvalue = [9, 3]\nclass = Unprivileged"] ;
1024 -> 1025 ;
1026 [label="age <= 46.5\ngini = 0.278\nsamples = 6\nvalue = [5, 1]\nclass = Unprivileged"] ;
1025 -> 1026 ;
1027 [label="gini = 0.0\nsamples = 3\nvalue = [3, 0]\nclass = Unprivileged"] ;
1026 -> 1027 ;
1028 [label="gini = 0.444\nsamples = 3\nvalue = [2, 1]\nclass = Unprivileged"] ;
1026 -> 1028 ;
1029 [label="age <= 46.5\ngini = 0.444\nsamples = 6\nvalue = [4, 2]\nclass = Unprivileged"] ;
1025 -> 1029 ;
1030 [label="gini = 0.0\nsamples = 1\nvalue = [0, 1]\nclass = Privileged"] ;
1029 -> 1030 ;
1031 [label="gini = 0.32\nsamples = 5\nvalue = [4, 1]\nclass = Unprivileged"] ;
1029 -> 1031 ;
1032 [label="gini = 0.0\nsamples = 2\nvalue = [2, 0]\nclass = Unprivileged"] ;
1024 -> 1032 ;
1033 [label="age <= 49.5\ngini = 0.444\nsamples = 3\nvalue = [1, 2]\nclass = Privileged"] ;
1023 -> 1033 ;
1034 [label="gini = 0.0\nsamples = 1\nvalue = [0, 1]\nclass = Privileged"] ;
1033 -> 1034 ;
1035 [label="race <= 0.5\ngini = 0.5\nsamples = 2\nvalue = [1, 1]\nclass = Unprivileged"] ;
1033 -> 1035 ;
1036 [label="gini = 0.0\nsamples = 1\nvalue = [1, 0]\nclass = Unprivileged"] ;
1035 -> 1036 ;
1037 [label="gini = 0.0\nsamples = 1\nvalue = [0, 1]\nclass = Privileged"] ;
1035 -> 1037 ;
1038 [label="gini = 0.0\nsamples = 5\nvalue = [5, 0]\nclass = Unprivileged"] ;
1022 -> 1038 ;
1039 [label="race <= 0.5\ngini = 0.48\nsamples = 5\nvalue = [3, 2]\nclass = Unprivileged"] ;
1021 -> 1039 ;
1040 [label="gini = 0.5\nsamples = 4\nvalue = [2, 2]\nclass = Unprivileged"] ;
1039 -> 1040 ;
1041 [label="gini = 0.0\nsamples = 1\nvalue = [1, 0]\nclass = Unprivileged"] ;
1039 -> 1041 ;
1042 [label="age <= 43.5\ngini = 0.184\nsamples = 39\nvalue = [35, 4]\nclass = Unprivileged"] ;
984 -> 1042 ;
1043 [label="age <= 42.5\ngini = 0.26\nsamples = 26\nvalue = [22, 4]\nclass = Unprivileged"] ;
1042 -> 1043 ;
1044 [label="race <= 0.5\ngini = 0.172\nsamples = 21\nvalue = [19, 2]\nclass = Unprivileged"] ;
1043 -> 1044 ;
1045 [label="age <= 37.5\ngini = 0.32\nsamples = 10\nvalue = [8, 2]\nclass = Unprivileged"] ;
1044 -> 1045 ;
1046 [label="age <= 36.0\ngini = 0.444\nsamples = 6\nvalue = [4, 2]\nclass = Unprivileged"] ;
1045 -> 1046 ;
1047 [label="gini = 0.0\nsamples = 2\nvalue = [2, 0]\nclass = Unprivileged"] ;
1046 -> 1047 ;
1048 [label="gini = 0.5\nsamples = 4\nvalue = [2, 2]\nclass = Unprivileged"] ;
1046 -> 1048 ;
1049 [label="gini = 0.0\nsamples = 4\nvalue = [4, 0]\nclass = Unprivileged"] ;
1045 -> 1049 ;
1050 [label="gini = 0.0\nsamples = 11\nvalue = [11, 0]\nclass = Unprivileged"] ;
1044 -> 1050 ;
1051 [label="race <= 0.5\ngini = 0.48\nsamples = 5\nvalue = [3, 2]\nclass = Unprivileged"] ;
1043 -> 1051 ;
1052 [label="gini = 0.0\nsamples = 2\nvalue = [2, 0]\nclass = Unprivileged"] ;
1051 -> 1052 ;
1053 [label="gini = 0.444\nsamples = 3\nvalue = [1, 2]\nclass = Privileged"] ;
1051 -> 1053 ;
1054 [label="gini = 0.0\nsamples = 13\nvalue = [13, 0]\nclass = Unprivileged"] ;
1042 -> 1054 ;
1055 [label="gini = 0.0\nsamples = 1\nvalue = [0, 1]\nclass = Privileged"] ;
911 -> 1055 ;
1056 [label="gini = 0.0\nsamples = 1\nvalue = [0, 1]\nclass = Privileged"] ;
910 -> 1056 ;
1057 [label="gini = 0.0\nsamples = 1\nvalue = [0, 1]\nclass = Privileged"] ;
909 -> 1057 ;
1058 [label="gini = 0.0\nsamples = 1\nvalue = [0, 1]\nclass = Privileged"] ;
908 -> 1058 ;
1059 [label="sex <= 0.5\ngini = 0.444\nsamples = 3\nvalue = [1, 2]\nclass = Privileged"] ;
907 -> 1059 ;
1060 [label="gini = 0.5\nsamples = 2\nvalue = [1, 1]\nclass = Unprivileged"] ;
1059 -> 1060 ;
1061 [label="gini = 0.0\nsamples = 1\nvalue = [0, 1]\nclass = Privileged"] ;
1059 -> 1061 ;
1062 [label="c_charge_desc=Possession of Cocaine <= 0.5\ngini = 0.403\nsamples = 343\nvalue = [247, 96]\nclass = Unprivileged"] ;
906 -> 1062 ;
1063 [label="c_charge_desc=Tamper With Witness/Victim/CI <= 0.5\ngini = 0.385\nsamples = 303\nvalue = [224, 79]\nclass = Unprivileged"] ;
1062 -> 1063 ;
1064 [label="c_charge_desc=Failure To Return Hired Vehicle <= 0.5\ngini = 0.378\nsamples = 296\nvalue = [221, 75]\nclass = Unprivileged"] ;
1063 -> 1064 ;
1065 [label="c_charge_desc=Poss Pyrrolidinovalerophenone <= 0.5\ngini = 0.376\nsamples = 295\nvalue = [221, 74]\nclass = Unprivileged"] ;
1064 -> 1065 ;
1066 [label="c_charge_desc=Contradict Statement <= 0.5\ngini = 0.373\nsamples = 294\nvalue = [221.0, 73.0]\nclass = Unprivileged"] ;
1065 -> 1066 ;
1067 [label="c_charge_desc=Trespass Structure w/Dang Weap <= 0.5\ngini = 0.371\nsamples = 293\nvalue = [221, 72]\nclass = Unprivileged"] ;
1066 -> 1067 ;
1068 [label="c_charge_desc=Felony Batt(Great Bodily Harm) <= 0.5\ngini = 0.368\nsamples = 292\nvalue = [221, 71]\nclass = Unprivileged"] ;
1067 -> 1068 ;
1069 [label="c_charge_desc=Felony Petit Theft <= 0.5\ngini = 0.365\nsamples = 291\nvalue = [221, 70]\nclass = Unprivileged"] ;
1068 -> 1069 ;
1070 [label="c_charge_desc=Imperson Public Officer or Emplyee <= 0.5\ngini = 0.363\nsamples = 290\nvalue = [221, 69]\nclass = Unprivileged"] ;
1069 -> 1070 ;
1071 [label="c_charge_desc=Defrauding Innkeeper $300/More <= 0.5\ngini = 0.36\nsamples = 289\nvalue = [221.0, 68.0]\nclass = Unprivileged"] ;
1070 -> 1071 ;
1072 [label="c_charge_desc=Felony Committing Prostitution <= 0.5\ngini = 0.357\nsamples = 288\nvalue = [221, 67]\nclass = Unprivileged"] ;
1071 -> 1072 ;
1073 [label="c_charge_desc=Felony DUI - Enhanced <= 0.5\ngini = 0.354\nsamples = 287\nvalue = [221, 66]\nclass = Unprivileged"] ;
1072 -> 1073 ;
1074 [label="c_charge_desc=Felony DUI (level 3) <= 0.5\ngini = 0.351\nsamples = 286\nvalue = [221, 65]\nclass = Unprivileged"] ;
1073 -> 1074 ;
1075 [label="c_charge_desc=Grand Theft (Motor Vehicle) <= 0.5\ngini = 0.348\nsamples = 285\nvalue = [221, 64]\nclass = Unprivileged"] ;
1074 -> 1075 ;
1076 [label="c_charge_desc=Criminal Mischief <= 0.5\ngini = 0.338\nsamples = 274\nvalue = [215.0, 59.0]\nclass = Unprivileged"] ;
1075 -> 1076 ;
1077 [label="c_charge_desc=Felony Battery w/Prior Convict <= 0.5\ngini = 0.335\nsamples = 273\nvalue = [215, 58]\nclass = Unprivileged"] ;
1076 -> 1077 ;
1078 [label="c_charge_desc=Possession of Morphine <= 0.5\ngini = 0.329\nsamples = 270\nvalue = [214, 56]\nclass = Unprivileged"] ;
1077 -> 1078 ;
1079 [label="c_charge_desc=Aggravated Battery (Firearm) <= 0.5\ngini = 0.325\nsamples = 269\nvalue = [214, 55]\nclass = Unprivileged"] ;
1078 -> 1079 ;
1080 [label="c_charge_desc=Battery on Law Enforc Officer <= 0.5\ngini = 0.322\nsamples = 268\nvalue = [214, 54]\nclass = Unprivileged"] ;
1079 -> 1080 ;
1081 [label="race <= 0.5\ngini = 0.314\nsamples = 262\nvalue = [211, 51]\nclass = Unprivileged"] ;
1080 -> 1081 ;
1082 [label="c_charge_desc=Possession of Oxycodone <= 0.5\ngini = 0.274\nsamples = 165\nvalue = [138, 27]\nclass = Unprivileged"] ;
1081 -> 1082 ;
1083 [label="c_charge_desc=Possession Of Methamphetamine <= 0.5\ngini = 0.26\nsamples = 163\nvalue = [138, 25]\nclass = Unprivileged"] ;
1082 -> 1083 ;
1084 [label="c_charge_desc=Cruelty Toward Child <= 0.5\ngini = 0.252\nsamples = 162\nvalue = [138, 24]\nclass = Unprivileged"] ;
1083 -> 1084 ;
1085 [label="c_charge_desc=Felony Driving While Lic Suspd <= 0.5\ngini = 0.245\nsamples = 161\nvalue = [138, 23]\nclass = Unprivileged"] ;
1084 -> 1085 ;
1086 [label="c_charge_desc=Tampering With Physical Evidence <= 0.5\ngini = 0.227\nsamples = 153\nvalue = [133, 20]\nclass = Unprivileged"] ;
1085 -> 1086 ;
1087 [label="c_charge_desc=Pos Cannabis W/Intent Sel/Del <= 0.5\ngini = 0.207\nsamples = 145\nvalue = [128, 17]\nclass = Unprivileged"] ;
1086 -> 1087 ;
1088 [label="c_charge_desc=arrest case no charge <= 0.5\ngini = 0.191\nsamples = 140\nvalue = [125, 15]\nclass = Unprivileged"] ;
1087 -> 1088 ;
1089 [label="c_charge_desc=Possession Of Heroin <= 0.5\ngini = 0.169\nsamples = 129\nvalue = [117, 12]\nclass = Unprivileged"] ;
1088 -> 1089 ;
1090 [label="c_charge_desc=Driving While License Revoked <= 0.5\ngini = 0.158\nsamples = 127\nvalue = [116, 11]\nclass = Unprivileged"] ;
1089 -> 1090 ;
1091 [label="c_charge_desc=Felony Battery (Dom Strang) <= 0.5\ngini = 0.132\nsamples = 113\nvalue = [105, 8]\nclass = Unprivileged"] ;
1090 -> 1091 ;
1092 [label="c_charge_desc=False Imprisonment <= 0.5\ngini = 0.097\nsamples = 98\nvalue = [93, 5]\nclass = Unprivileged"] ;
1091 -> 1092 ;
1093 [label="age <= 29.5\ngini = 0.081\nsamples = 94\nvalue = [90, 4]\nclass = Unprivileged"] ;
1092 -> 1093 ;
1094 [label="c_charge_desc=Aggrav Battery w/Deadly Weapon <= 0.5\ngini = 0.26\nsamples = 13\nvalue = [11, 2]\nclass = Unprivileged"] ;
1093 -> 1094 ;
1095 [label="c_charge_desc=Carrying Concealed Firearm <= 0.5\ngini = 0.153\nsamples = 12\nvalue = [11, 1]\nclass = Unprivileged"] ;
1094 -> 1095 ;
1096 [label="gini = 0.0\nsamples = 10\nvalue = [10, 0]\nclass = Unprivileged"] ;
1095 -> 1096 ;
1097 [label="gini = 0.5\nsamples = 2\nvalue = [1, 1]\nclass = Unprivileged"] ;
1095 -> 1097 ;
1098 [label="gini = 0.0\nsamples = 1\nvalue = [0, 1]\nclass = Privileged"] ;
1094 -> 1098 ;
1099 [label="c_charge_desc=Possession of Cannabis <= 0.5\ngini = 0.048\nsamples = 81\nvalue = [79, 2]\nclass = Unprivileged"] ;
1093 -> 1099 ;
1100 [label="c_charge_desc=Grand Theft in the 3rd Degree <= 0.5\ngini = 0.026\nsamples = 76\nvalue = [75, 1]\nclass = Unprivileged"] ;
1099 -> 1100 ;
